</s> 0.1980067 -0.014657376 0.021401873 0.012475952 0.04727928 0.17068861 -0.3388218 0.16491893 0.19151366 0.064652726 -0.032159373 0.20540152 -0.15997854 0.03296848 -0.23487487 0.09411702 0.10007402 -0.13241103 -0.08464852 -0.11458691 -0.071675956 -0.011608896 0.14402618 0.009503184 -0.21715063 -0.10062132 0.019984422 -0.061873607 -0.094114184 0.34189647 0.019465836 0.03614739 -0.04511563 0.015125176 -0.22233057 -0.13232878 -0.01848278 -0.18075347 -0.12581253 0.09056817 -0.20168644 0.09885431 -0.0018605775 0.19805689 0.21392243 -0.19837183 0.21255055 0.068173334 0.092549734 0.095540136 -0.1380572 0.010784974 -0.17911501 0.20878114 -0.11359055 -0.22028755 -0.1735043 0.15594153 0.11403894 0.22371982 0.28051925 0.09001269 0.24270034 0.124559015 -0.08355785 0.09872859 0.031858187 0.269766 -0.06593029 -0.10969592 -0.115001604 0.19571008 0.06804387 0.1299415 -0.37944517 0.004018691 0.2722336 0.002936953 0.09535035 -0.11630845 0.17647338 -0.0013317248 0.102349125 0.110980816 0.015246336 0.05526301 0.1880526 0.09412506 -0.1827355 -0.15378398 0.106658906 -0.09543267 0.5913353 -0.20757583 -0.0031889903 -0.234181 -0.23520604 0.020755284 -0.028335145 -0.11731662
320 0.21481146 -0.022133717 0.04152191 0.0061374153 0.046440348 0.17952493 -0.3609187 0.17014499 0.17502007 0.04942018 -0.02967219 0.19122897 -0.17972943 0.023118814 -0.23411502 0.09274176 0.10164467 -0.1331608 -0.0951532 -0.10174578 -0.0758343 -0.012845853 0.13897799 0.025481615 -0.23419167 -0.095025614 0.0043391045 -0.05816369 -0.093396045 0.31805453 0.015661066 0.039204914 -0.029930148 0.0192386 -0.21125896 -0.1327875 -0.032994915 -0.16478305 -0.121733196 0.0957411 -0.22298585 0.09688757 -0.018931886 0.19765459 0.22647122 -0.20114738 0.22198845 0.072110474 0.099572375 0.09706983 -0.1331414 -0.00586035 -0.16325006 0.20674218 -0.11751726 -0.20823066 -0.18358602 0.15297778 0.11725233 0.21735758 0.29393172 0.086528175 0.23872142 0.12183414 -0.072142534 0.09627343 0.03540893 0.25910518 -0.082320064 -0.1229337 -0.10072618 0.20178993 0.07612558 0.116850294 -0.37752977 0.009410317 0.25458 -0.00607657 0.10084184 -0.10324796 0.1877742 -0.017279405 0.09223868 0.12399474 0.030094866 0.0680409 0.192291 0.084101886 -0.18016721 -0.14367618 0.09634567 -0.096443996 0.5846207 -0.19443955 0.000322729 -0.22034068 -0.2471667 0.00915617 -0.023249328 -0.1192452
395 0.21944474 -0.034207936 0.030087175 0.012855723 0.040755358 0.16236554 -0.36189696 0.1599537 0.18694584 0.062240697 -0.040387385 0.19320543 -0.17604539 0.013606566 -0.22949384 0.10446002 0.09933166 -0.14099084 -0.09532969 -0.095262066 -0.060513556 -0.030426323 0.12597269 0.01933985 -0.22227503 -0.090525664 0.021375736 -0.06578486 -0.09990588 0.326177 0.024812438 0.04816287 -0.036480844 0.028067192 -0.21245562 -0.13562214 -0.03347233 -0.16064921 -0.112036616 0.10746185 -0.21992297 0.091005184 -0.0076228823 0.19281974 0.22242929 -0.19699539 0.21999283 0.08236763 0.109707475 0.1005965 -0.1305635 -0.003475703 -0.15866746 0.1934034 -0.118842006 -0.20374583 -0.17231986 0.14358687 0.10225574 0.21550028 0.30471337 0.092276014 0.23811199 0.121539325 -0.08225222 0.10219121 0.036815356 0.26064017 -0.0722408 -0.12759158 -0.09618023 0.20232232 0.0732014 0.11329935 -0.38508236 0.0139590055 0.26683813 -0.013908404 0.10354622 -0.11860845 0.19400644 -0.0141992485 0.08075346 0.11631225 0.02402797 0.05837963 0.1917507 0.10406453 -0.16782692 -0.15226842 0.08701713 -0.09900873 0.58787453 -0.19860198 -0.007025244 -0.22475642 -0.24746385 0.01130903 -0.011042701 -0.10329111
108 0.2107946 -0.017927036 0.027130356 0.013983868 0.038672622 0.17766416 -0.36138493 0.16905525 0.18593405 0.060127657 -0.033276998 0.20577393 -0.18139091 0.024229137 -0.22337869 0.09453348 0.09127179 -0.14492129 -0.07949535 -0.09719188 -0.061315753 -0.012613123 0.13224064 0.020712828 -0.23054156 -0.08311964 0.02205559 -0.058870792 -0.100864746 0.31907427 0.02625357 0.04591037 -0.033491213 0.033103965 -0.20597796 -0.121387996 -0.02237331 -0.17293252 -0.12307144 0.10586138 -0.21018308 0.08452673 -0.018058874 0.18749501 0.21771596 -0.20836475 0.221905 0.07379324 0.107198976 0.1000609 -0.13997288 -0.0114081185 -0.16458446 0.19521533 -0.11221809 -0.21783346 -0.17461173 0.15483566 0.11295498 0.22150166 0.28578377 0.08721508 0.2345384 0.10561433 -0.08325705 0.10405867 0.046043076 0.25998738 -0.0788955 -0.122863695 -0.09550038 0.2010046 0.07155044 0.12915418 -0.3754352 0.01982106 0.2645714 -0.0014614126 0.099125125 -0.1185255 0.18697667 -0.0070249513 0.09731771 0.1246225 0.036532696 0.06460601 0.19259955 0.10108997 -0.18353319 -0.16211306 0.096114084 -0.10710743 0.5837486 -0.19530067 -0.017142912 -0.22584735 -0.24496584 0.010723701 -0.017297154 -0.110882804
4 0.20657 -0.023400184 0.031478625 0.019794324 0.049217403 0.18133262 -0.35313687 0.15983938 0.18657629 0.057940174 -0.030096421 0.19419989 -0.18191987 0.021741958 -0.21964575 0.10107184 0.10083123 -0.13995777 -0.09304222 -0.09083993 -0.06080344 -0.025582653 0.12989429 0.0089785615 -0.22192079 -0.08397807 0.025615664 -0.05246666 -0.08535726 0.33369783 0.026237657 0.031825177 -0.040354356 0.024476139 -0.20399734 -0.12252742 -0.033722006 -0.16149768 -0.116832085 0.101622865 -0.21727295 0.083818235 -0.007030927 0.20433834 0.22350584 -0.21387026 0.21306583 0.0836288 0.10382824 0.08925934 -0.13671228 0.00078488427 -0.1614224 0.20079392 -0.098704495 -0.20585531 -0.1782551 0.15855548 0.09758964 0.2317308 0.3005081 0.087462425 0.22827987 0.11535931 -0.06882196 0.10628059 0.04033302 0.2572997 -0.08245896 -0.11362886 -0.10803692 0.19835499 0.06252084 0.1336292 -0.3831315 0.0069462783 0.25279012 -0.020284437 0.09825401 -0.11249133 0.17918004 -0.009397432 0.09039287 0.12641768 0.026155263 0.061132282 0.19814801 0.101860315 -0.18139371 -0.14608924 0.101182215 -0.100258134 0.5964856 -0.19962013 -0.008988126 -0.21663076 -0.24872674 -0.0037288882 -0.022616219 -0.12149511
402 0.22036324 -0.021932492 0.038411066 0.012730075 0.04364785 0.17506249 -0.3651805 0.16725591 0.17079513 0.06322645 -0.029581606 0.20282002 -0.18242359 0.01844532 -0.23589411 0.10564029 0.092630066 -0.14666454 -0.079915345 -0.108033545 -0.077556096 -0.020329993 0.13904041 0.014614279 -0.22257295 -0.08120805 0.014502493 -0.063629374 -0.10003079 0.31842664 0.013256945 0.046442647 -0.03758191 0.022953391 -0.20066254 -0.1240824 -0.032575298 -0.17480059 -0.12924762 0.10925785 -0.21788996 0.08580477 -0.01950587 0.19912076 0.22636211 -0.20582283 0.21065511 0.06480485 0.09947378 0.10035282 -0.1373198 -0.013806041 -0.17708737 0.20826457 -0.10508414 -0.21054083 -0.17215194 0.15346867 0.10801535 0.21901901 0.2873258 0.08011771 0.24237262 0.11153103 -0.070352644 0.10331265 0.033863436 0.2580277 -0.0818709 -0.10981374 -0.106614284 0.20554523 0.080625035 0.11536591 -0.3798523 0.009745897 0.26309958 -0.017807223 0.08762087 -0.11373943 0.19283201 -0.0073453076 0.09264254 0.13158935 0.031965815 0.065186754 0.18606693 0.09716533 -0.1822528 -0.14092194 0.09306118 -0.100655735 0.5743058 -0.19589199 -0.009138884 -0.22236134 -0.2546637 0.0057876008 -0.021562409 -0.12192813
107 0.21903744 -0.027914206 0.042001925 0.008644191 0.03523554 0.17456926 -0.35377902 0.16865002 0.1810497 0.05205662 -0.028765596 0.20477842 -0.18399864 0.011598163 -0.23504955 0.1099549 0.09743745 -0.14085771 -0.08697074 -0.09584426 -0.06376001 -0.012121295 0.13564377 0.013378211 -0.2225628 -0.08225361 0.009226943 -0.05871808 -0.09263939 0.33503538 0.013787664 0.030884955 -0.039807692 0.026821073 -0.20019501 -0.12432825 -0.02103903 -0.16534197 -0.122376844 0.10315675 -0.21729767 0.0933509 -0.007176016 0.18972 0.22657248 -0.20880689 0.22339867 0.06746205 0.102471896 0.08636842 -0.12661158 0.0028276027 -0.17377025 0.2012273 -0.10386195 -0.21553496 -0.1750306 0.15340416 0.11724957 0.21820556 0.29361495 0.09046367 0.22136042 0.105124824 -0.08210085 0.105175115 0.0339034 0.2696973 -0.07694999 -0.10862688 -0.11235703 0.20032118 0.066820174 0.121302746 -0.37548843 0.012068278 0.25912082 -0.016866408 0.08663858 -0.11153541 0.19449717 -0.005104727 0.092938386 0.11395304 0.03311983 0.061141834 0.20296848 0.09954883 -0.1674973 -0.15202622 0.09424727 -0.103919975 0.5802984 -0.19733672 -0.015888805 -0.23259814 -0.24889007 0.0019891986 -0.006551169 -0.12318038
367 0.20506817 -0.030673169 0.024181565 0.008391561 0.048566226 0.16829152 -0.36142167 0.17026487 0.18082151 0.047965918 -0.026797272 0.18875214 -0.17523032 0.03018274 -0.2223516 0.099016264 0.09256967 -0.13673173 -0.084987886 -0.09638825 -0.067839436 -0.026700791 0.12770908 0.02148826 -0.23188308 -0.09494537 0.010215792 -0.05221532 -0.097145334 0.32957348 0.020852402 0.048162688 -0.023918571 0.029983047 -0.21508133 -0.12533033 -0.017750304 -0.17995353 -0.11289832 0.10144498 -0.20950535 0.09409352 -0.01335758 0.2027905 0.22480981 -0.19624853 0.22286534 0.08395246 0.11274237 0.104315706 -0.138066 -0.0038108272 -0.16163673 0.21131127 -0.10735921 -0.214836 -0.17436852 0.15660799 0.115822464 0.21608303 0.2949961 0.07658291 0.24331541 0.1078155 -0.08354448 0.09254878 0.046263833 0.26429895 -0.086885706 -0.12236424 -0.11130991 0.20411204 0.062477954 0.12626535 -0.3715491 0.019255206 0.25335407 -0.003152323 0.091446415 -0.11493486 0.18411142 -0.015440007 0.09719302 0.13116516 0.027139548 0.07499034 0.19452968 0.10018802 -0.17500661 -0.15599614 0.10457035 -0.10312102 0.57590973 -0.20290984 -0.017980533 -0.22998832 -0.2511337 -0.0038217842 -0.0095293205 -0.11660309
44 0.21968894 -0.033361726 0.03968472 0.013536883 0.04670213 0.16169241 -0.35881025 0.17285779 0.16989174 0.04925171 -0.038899858 0.19524729 -0.17874372 0.028199561 -0.22435008 0.09258368 0.10181703 -0.13244513 -0.07952947 -0.1002726 -0.07927839 -0.025860257 0.13854788 0.0121008 -0.22454149 -0.09194545 0.025401926 -0.06753833 -0.08353232 0.33062848 0.022319442 0.05033649 -0.028710209 0.0205894 -0.21045685 -0.1296136 -0.017571297 -0.16498978 -0.11939778 0.11089179 -0.22149819 0.07715678 -0.004561816 0.20132808 0.22521792 -0.21108657 0.21826752 0.08043264 0.10086784 0.10179074 -0.13593347 -0.0005757389 -0.17369573 0.2092605 -0.110281534 -0.20625594 -0.17320558 0.1414213 0.103801034 0.2264011 0.29241258 0.08557405 0.23942867 0.12535642 -0.07803162 0.093122244 0.052296765 0.25911123 -0.08126806 -0.12088347 -0.0996242 0.18763545 0.07398036 0.1320864 -0.36756662 0.02022702 0.25221106 -0.004075568 0.10231456 -0.09761808 0.18599874 -0.015050333 0.087354146 0.11460312 0.03641675 0.07106657 0.20001422 0.09683272 -0.17553689 -0.14971076 0.09350012 -0.10428392 0.59460235 -0.19079073 -0.015339204 -0.22680332 -0.24818099 0.016921148 -0.0077994093 -0.11502506
404 0.20397882 -0.028706541 0.03563813 0.02375374 0.038053446 0.17879224 -0.35145247 0.16932969 0.17438854 0.045302667 -0.034804612 0.19399455 -0.1692561 0.010949186 -0.23660319 0.09369891 0.09520766 -0.14926518 -0.08477589 -0.10281333 -0.0748495 -0.025097469 0.13695092 0.013865935 -0.23397173 -0.08950876 0.023623284 -0.064832725 -0.08724865 0.3173102 0.024642406 0.033426903 -0.02943652 0.01972663 -0.20778295 -0.13207512 -0.030794183 -0.16228779 -0.119846985 0.10111563 -0.21096364 0.09535142 -0.016564984 0.1986937 0.21686812 -0.20268631 0.22032799 0.07472881 0.10389481 0.093011126 -0.13296777 -0.0116486205 -0.1645466 0.20042448 -0.10457293 -0.20812608 -0.17131488 0.16243401 0.11795977 0.22662942 0.29221365 0.0870349 0.23391597 0.12028284 -0.080521904 0.09320914 0.040117353 0.27360228 -0.08099623 -0.11407501 -0.098584056 0.19346796 0.07318858 0.13161111 -0.3752828 0.018476894 0.25402898 -0.008024766 0.10138767 -0.110664114 0.1949506 -0.01737227 0.09438557 0.112617426 0.019794036 0.06616229 0.18608074 0.098807104 -0.17679289 -0.15212272 0.094656825 -0.092587136 0.5929072 -0.20132841 -0.018316844 -0.22528003 -0.25567162 0.0072931456 -0.021692151 -0.12286745
368 0.21753852 -0.023565002 0.025191536 0.02512753 0.047227707 0.1721752 -0.3579717 0.16710064 0.17635454 0.04899151 -0.020122668 0.19923703 -0.17513916 0.021378975 -0.23114258 0.09722863 0.098000206 -0.14605081 -0.07747482 -0.09303572 -0.06707146 -0.024812922 0.14433378 0.0063419887 -0.22972159 -0.0954995 0.022953441 -0.06069688 -0.09587784 0.32764202 0.030238053 0.03321103 -0.03364361 0.021461334 -0.1962917 -0.13774239 -0.02584816 -0.17209773 -0.12292417 0.092155896 -0.21808845 0.08501201 -0.02304037 0.19057107 0.22404729 -0.191881 0.21179906 0.07940978 0.0963139 0.0931047 -0.142392 -0.008735437 -0.15988564 0.20084488 -0.1044065 -0.22047982 -0.17207333 0.16241106 0.114474155 0.22134067 0.30238408 0.09122301 0.23554012 0.121869504 -0.080532275 0.11117164 0.047699455 0.2641873 -0.08087534 -0.10749709 -0.092842475 0.20711526 0.07729004 0.11671735 -0.3782037 0.009768228 0.25902167 -0.003022091 0.09774352 -0.11456309 0.18278411 -0.0060477527 0.08574014 0.11839327 0.03672299 0.059717562 0.19083542 0.09512517 -0.18321379 -0.15351595 0.08834564 -0.095526606 0.5879769 -0.20553453 -0.019029932 -0.23148653 -0.24037407 0.0024163662 -0.020938016 -0.10922918
67 0.22188069 -0.020386742 0.026046734 0.024462232 0.03459008 0.17686999 -0.34500936 0.17044185 0.17116037 0.047667854 -0.036045995 0.20009212 -0.16928384 0.02032372 -0.22318989 0.0998339 0.09935062 -0.14630161 -0.08715168 -0.098378494 -0.06615626 -0.015828349 0.13608555 0.022718223 -0.23205344 -0.08223628 0.01142546 -0.052352984 -0.1022102 0.32954803 0.026358731 0.048191167 -0.035406567 0.013701545 -0.2033116 -0.1297169 -0.026574787 -0.17186156 -0.122946426 0.1007007 -0.21002822 0.092424765 -0.005162894 0.20236474 0.22298566 -0.20127858 0.21274045 0.07569093 0.09603618 0.10073577 -0.13867268 -0.0039266567 -0.1617024 0.19233167 -0.09935416 -0.2075722 -0.17279793 0.14981598 0.11567283 0.21191464 0.302348 0.08822737 0.24031968 0.12416017 -0.0693864 0.094486326 0.039995894 0.26982823 -0.08443274 -0.11580674 -0.1093187 0.19903548 0.08048142 0.13045616 -0.3837044 0.013891443 0.25787953 -0.012888448 0.10231292 -0.11911764 0.19325036 -0.007865394 0.08230725 0.12562491 0.03267104 0.070744425 0.20213659 0.09717825 -0.17317803 -0.16012473 0.09166828 -0.09062854 0.58344066 -0.18761362 -0.0057393303 -0.22488293 -0.2563095 0.0043873945 -0.025695153 -0.12143655
25 0.21432182 -0.0356406 0.025936993 0.011899965 0.04925715 0.17200032 -0.36541077 0.16586211 0.18236005 0.049918402 -0.031742454 0.20729263 -0.16567595 0.028793948 -0.22620647 0.099048205 0.097177364 -0.141638 -0.079564184 -0.1041274 -0.061580915 -0.022918306 0.13865022 0.018680664 -0.22864087 -0.09507831 0.02307918 -0.049669676 -0.08470638 0.3200806 0.023451416 0.04507862 -0.025792336 0.025610555 -0.21201131 -0.12644954 -0.017345766 -0.17812406 -0.12724975 0.09941052 -0.20697242 0.08122046 -0.0040902365 0.18712708 0.22472224 -0.21105702 0.21325798 0.083023995 0.107152596 0.09386595 -0.12606357 -0.014090113 -0.16801831 0.19487828 -0.111762986 -0.21788734 -0.1825631 0.14707322 0.09871371 0.21456076 0.2991289 0.090207316 0.23851281 0.11467642 -0.08375705 0.10707452 0.03342556 0.26337963 -0.07239544 -0.12510599 -0.097137526 0.2053759 0.077908345 0.12074177 -0.37824556 0.004018949 0.26104343 0.00045051426 0.09538976 -0.099223405 0.1888527 -0.010428369 0.092468396 0.11729152 0.031738296 0.06676012 0.19617486 0.09235379 -0.18154684 -0.14966416 0.095190704 -0.10968095 0.582268 -0.20561336 -0.013467184 -0.23086339 -0.24227129 -0.0044084075 -0.016542152 -0.12057742
251 0.21321099 -0.032414686 0.038150918 0.023537794 0.031740196 0.17600065 -0.35140103 0.16335882 0.18536107 0.05469687 -0.027167778 0.2016678 -0.18229258 0.024860326 -0.23258363 0.10576515 0.10504393 -0.13078046 -0.09754044 -0.103384696 -0.07343827 -0.02708966 0.12844957 0.018103423 -0.22001463 -0.084506236 0.024235241 -0.052267656 -0.08550735 0.32613677 0.027202789 0.04018414 -0.035522584 0.019605318 -0.19489335 -0.12246649 -0.034526043 -0.17919303 -0.11629958 0.09612805 -0.2046194 0.08896475 -0.015992811 0.19931617 0.22501439 -0.20820121 0.20524539 0.07520712 0.10921933 0.08933591 -0.1311668 0.0019941865 -0.17499688 0.20646098 -0.117231525 -0.21481492 -0.18233947 0.15744507 0.09843853 0.22470395 0.28648323 0.07964033 0.2348661 0.12551238 -0.076820806 0.09559137 0.038856972 0.26472247 -0.07204974 -0.12200386 -0.11046571 0.20330973 0.07606749 0.12443743 -0.38107693 0.0061023217 0.26683062 -0.019323368 0.08676655 -0.111610584 0.19364977 -0.007879652 0.0812037 0.12837557 0.024449995 0.07242295 0.20144854 0.08697455 -0.1779614 -0.14540128 0.08747267 -0.09333646 0.58828855 -0.20468087 -0.011027717 -0.22105284 -0.24972832 0.0030258514 -0.007904804 -0.117542796
156 0.21406215 -0.035958752 0.03564004 0.025278378 0.044700064 0.1626911 -0.35510522 0.16801019 0.18079273 0.055900224 -0.03590347 0.20529883 -0.18613456 0.014933264 -0.2337394 0.10040118 0.097072735 -0.13060586 -0.09250219 -0.08944728 -0.0765941 -0.0155126685 0.13468206 0.011183965 -0.22264244 -0.08250493 0.022811858 -0.06683139 -0.086197585 0.32898378 0.016572304 0.049022112 -0.039835986 0.01709566 -0.19455487 -0.13609874 -0.025009418 -0.16353317 -0.12618512 0.09118875 -0.21928173 0.09436039 -0.019384038 0.19519663 0.21755598 -0.20483162 0.22361264 0.06879025 0.11436484 0.097003974 -0.1384246 0.0021170483 -0.16942038 0.19735758 -0.11599153 -0.21826656 -0.17329907 0.14929073 0.11226181 0.22666214 0.2876631 0.08597968 0.22184038 0.1221964 -0.068343416 0.092923306 0.04241093 0.265291 -0.07927391 -0.114991345 -0.11271263 0.19640493 0.075484045 0.1136079 -0.3856345 0.022410424 0.26908985 -0.001556285 0.09157506 -0.100044616 0.19180459 -0.022092858 0.08762161 0.12967952 0.024482472 0.06168472 0.2008249 0.09710701 -0.17807683 -0.1618995 0.10064691 -0.09625117 0.57684577 -0.1944682 -0.017932564 -0.232128 -0.2504509 0.004661138 -0.015261277 -0.11440791
278 0.21457024 -0.020516176 0.028490117 0.00785221 0.04298201 0.17996353 -0.3629683 0.16230932 0.17747776 0.060595382 -0.023802336 0.1892268 -0.17461057 0.022558352 -0.22385935 0.11019315 0.09450223 -0.13722095 -0.09577956 -0.106359474 -0.0598999 -0.030470751 0.12435116 0.027384114 -0.22450507 -0.08507371 0.010997063 -0.048113007 -0.102235 0.32219324 0.026338529 0.049202017 -0.023527255 0.018547732 -0.21309574 -0.1362952 -0.03511551 -0.17679796 -0.121153176 0.108804636 -0.21489596 0.09263935 -0.0034046015 0.20194872 0.21539871 -0.2134749 0.21817975 0.0849645 0.107324064 0.10112318 -0.13461125 0.006347628 -0.16594997 0.19806813 -0.10338403 -0.2056783 -0.17892082 0.1466339 0.11611608 0.21777546 0.30074352 0.07699321 0.22617221 0.11987778 -0.07035708 0.093790494 0.05319127 0.2678993 -0.0834481 -0.114220224 -0.09809724 0.20836332 0.062274694 0.11934709 -0.37206098 0.007782494 0.25692332 -0.018932017 0.09816351 -0.10765059 0.18767111 -0.0013593233 0.09325462 0.12511796 0.024416251 0.058633395 0.20118342 0.085463196 -0.17443588 -0.16259915 0.08663784 -0.09634713 0.5931491 -0.20246005 -0.011768553 -0.21945044 -0.25239938 0.0028083816 -0.01104373 -0.11144944
1 0.21309216 -0.025549684 0.027436579 0.017833183 0.041833613 0.17563345 -0.36154515 0.16583742 0.18730018 0.059347954 -0.023663888 0.2025713 -0.18080665 0.022822132 -0.2244444 0.092308015 0.09854256 -0.13392927 -0.09457494 -0.102878734 -0.0725272 -0.015867472 0.14358033 0.02548138 -0.22300315 -0.08583396 0.024195645 -0.058044966 -0.095075294 0.33067718 0.030179812 0.038847014 -0.03279392 0.01634205 -0.21367699 -0.13832262 -0.025448382 -0.17425282 -0.11137499 0.0998695 -0.21933866 0.09561888 -0.0073822928 0.2010709 0.22139618 -0.19382289 0.2137576 0.08052379 0.11468034 0.09211237 -0.12623799 -0.0009797354 -0.16557093 0.19376603 -0.10958951 -0.21496344 -0.16445753 0.15005426 0.10599634 0.22182746 0.2983002 0.07310282 0.24089384 0.11581151 -0.07306335 0.104040176 0.05101336 0.26532692 -0.07025166 -0.12229078 -0.10795287 0.20183852 0.079518154 0.13102928 -0.36975786 0.012784062 0.26071426 -0.010464554 0.10204194 -0.10200385 0.17929684 -0.0109479455 0.09112763 0.13019629 0.028457066 0.07149249 0.1854131 0.08543903 -0.16737731 -0.1467228 0.10463405 -0.09261951 0.59196675 -0.18718755 -0.0058226567 -0.23311044 -0.24751768 0.012570124 -0.009387649 -0.11531531
288 0.21689433 -0.035461824 0.035027206 0.019735388 0.037074525 0.16109444 -0.35989696 0.1747258 0.18393512 0.04263263 -0.032237228 0.2013194 -0.18074828 0.020439887 -0.23986973 0.10971979 0.10625509 -0.1391819 -0.08713119 -0.10924733 -0.065427534 -0.022056367 0.12563792 0.012020232 -0.229328 -0.07975912 0.018613096 -0.0649147 -0.09353901 0.32981673 0.01687801 0.03800869 -0.03264342 0.021533322 -0.20371501 -0.13323194 -0.01842849 -0.16916026 -0.11905326 0.092758164 -0.20563082 0.086069606 -0.01706406 0.19785412 0.22122984 -0.20864895 0.22036877 0.068109244 0.097245984 0.089368425 -0.1364949 -0.0016784711 -0.1710909 0.19763064 -0.10221872 -0.21958567 -0.16829184 0.1548823 0.10488731 0.2181463 0.28425953 0.07942112 0.23849961 0.123874225 -0.08119515 0.10779215 0.047002815 0.27414522 -0.07815448 -0.11070329 -0.110571735 0.20522366 0.073408164 0.1260199 -0.3769804 0.001166851 0.25714338 -0.0013871564 0.10078576 -0.10173621 0.19672337 -0.012924961 0.08638402 0.11061581 0.029620115 0.06454845 0.1937459 0.0912259 -0.16756997 -0.15969403 0.10219903 -0.10685076 0.5889255 -0.19254205 -0.009256484 -0.22679141 -0.24907696 0.002335709 -0.023538569 -0.10932795
327 0.21585967 -0.019323485 0.023830652 0.008484884 0.04191099 0.16258708 -0.3583088 0.17810099 0.17537984 0.05704892 -0.036009178 0.19419622 -0.16997324 0.02793661 -0.22076471 0.1070421 0.09129506 -0.14021678 -0.08465931 -0.10616338 -0.068479374 -0.019882614 0.13337019 0.019693464 -0.22714874 -0.09114934 0.021522487 -0.06543791 -0.09122711 0.31595567 0.01652654 0.03324162 -0.026199454 0.018916544 -0.20781575 -0.13563998 -0.023366256 -0.17793262 -0.12776636 0.103894085 -0.20684916 0.08664265 -0.013237817 0.19177163 0.2187245 -0.20961155 0.20326252 0.082019515 0.101744115 0.08794364 -0.13894275 0.003384607 -0.17425767 0.20565456 -0.116945304 -0.21192017 -0.17754212 0.16139896 0.11498077 0.23000392 0.3037891 0.083740294 0.2404898 0.124302246 -0.07520783 0.10381738 0.049911864 0.25785205 -0.08362058 -0.115193136 -0.10595367 0.19681178 0.0737417 0.12303067 -0.37412298 0.01375413 0.2637933 -0.0066707693 0.09536357 -0.11144258 0.18827452 -0.022058655 0.093454115 0.12142763 0.035775978 0.07550488 0.19380543 0.10066746 -0.16687243 -0.15052164 0.09448112 -0.0909248 0.58815825 -0.20509264 -0.016547985 -0.22461909 -0.250004 0.007946471 -0.018254992 -0.107994355
339 0.21500085 -0.030041764 0.039814156 0.024915377 0.04731122 0.1793856 -0.35485885 0.1703102 0.18036531 0.059549704 -0.038297772 0.18589257 -0.17436576 0.0220638 -0.22635035 0.10280714 0.0932688 -0.14213431 -0.097315714 -0.10982275 -0.06469386 -0.01932021 0.14209013 0.023019804 -0.22944784 -0.09679036 0.013297317 -0.051275548 -0.09000687 0.32933578 0.02476797 0.04002405 -0.028964512 0.031611156 -0.20849948 -0.13147838 -0.033029858 -0.16201648 -0.12456166 0.090898216 -0.21531683 0.09055738 -0.020975789 0.20327783 0.22367987 -0.1926778 0.21473253 0.065406874 0.105102606 0.08515271 -0.13707617 0.00083065155 -0.16404703 0.20074596 -0.1146384 -0.20906325 -0.16717361 0.15198441 0.11236732 0.21523632 0.28663543 0.084235296 0.22291692 0.1164454 -0.07045987 0.09612593 0.048187297 0.27260727 -0.07335842 -0.108258314 -0.11398676 0.19573204 0.06638825 0.11902227 -0.3823774 0.009529418 0.26667815 -0.0049521117 0.10106 -0.11154479 0.19478136 -0.008816271 0.08964091 0.12299739 0.017724087 0.07095829 0.18699257 0.09339762 -0.16768982 -0.16163746 0.10206886 -0.10091666 0.5905971 -0.20525973 -0.014320182 -0.2222544 -0.25150168 0.014805915 -0.013309278 -0.10804962
91 0.21104084 -0.03508867 0.03555646 0.02609711 0.029913338 0.1730055 -0.3470752 0.1732966 0.18832575 0.050890673 -0.034542438 0.20054568 -0.16956116 0.025563683 -0.22464487 0.10682547 0.10139917 -0.14123909 -0.08069185 -0.10529392 -0.0814914 -0.023943638 0.14241216 0.020159679 -0.22147511 -0.09234546 0.010615405 -0.05268692 -0.09568647 0.3195896 0.019556047 0.038003106 -0.039040253 0.02747565 -0.21315293 -0.1347072 -0.013398231 -0.16443807 -0.11663259 0.10910637 -0.21982104 0.08570028 -0.013629951 0.20374826 0.22238605 -0.19650325 0.2078135 0.07488018 0.107347354 0.10169771 -0.12663615 -0.011339829 -0.1769924 0.2002307 -0.11459197 -0.21578094 -0.16280435 0.15014526 0.10277209 0.2261347 0.2847429 0.08524918 0.22704901 0.11979876 -0.08280768 0.09914925 0.046557285 0.26694927 -0.07685554 -0.12461885 -0.114347085 0.20648377 0.07799422 0.13611248 -0.3819151 0.018725887 0.26577067 -0.0090344185 0.093368985 -0.11650352 0.1915252 -0.0022595502 0.083472416 0.11395884 0.03075368 0.06646376 0.19098021 0.10154182 -0.17485802 -0.16029194 0.10063472 -0.089424 0.58481133 -0.19332264 -0.017285682 -0.22618073 -0.24672012 -0.0042854827 -0.025516262 -0.11707669
246 0.21304956 -0.016566746 0.029322075 0.008717557 0.04052201 0.17731982 -0.36617845 0.17299376 0.17199464 0.048436802 -0.030861543 0.20639959 -0.17611168 0.027417472 -0.23181923 0.10504213 0.101839006 -0.1363478 -0.07773397 -0.10598243 -0.061282057 -0.030048743 0.14316079 0.01675237 -0.22544806 -0.09392055 0.022501046 -0.061434753 -0.10121399 0.32559675 0.030889256 0.047336683 -0.033158235 0.03301782 -0.20454505 -0.14104249 -0.030755335 -0.17272635 -0.12987484 0.10399034 -0.20696369 0.09553015 -0.016986102 0.19268934 0.22007346 -0.2102948 0.21870111 0.07660873 0.10422266 0.084670074 -0.13265914 1.103282e-05 -0.16197452 0.19506338 -0.11395028 -0.21746705 -0.17924649 0.14535482 0.107749134 0.21860467 0.28869608 0.0832692 0.23749334 0.11485756 -0.0848578 0.08883585 0.047288258 0.26372674 -0.07104201 -0.115158126 -0.1130928 0.19838639 0.07139469 0.12455555 -0.38110778 0.016138455 0.2502038 -0.006671316 0.09425841 -0.1081508 0.18661942 -0.0171376 0.09366257 0.11432549 0.028805895 0.07473577 0.19349612 0.09485731 -0.17971274 -0.1563354 0.103209466 -0.1037812 0.5751762 -0.2029583 -0.0011641147 -0.23343273 -0.24377333 0.007401212 -0.009092277 -0.12091283
310 0.20802861 -0.020160345 0.04013421 0.023403376 0.02996522 0.17875971 -0.35849488 0.17312048 0.18995064 0.057546094 -0.028931718 0.19585903 -0.17793699 0.02140619 -0.2386558 0.111240864 0.10555481 -0.13112319 -0.09458619 -0.0934783 -0.07115779 -0.011984355 0.12432779 0.015566844 -0.2242877 -0.0846607 0.02355796 -0.047568116 -0.10019187 0.3239514 0.027376201 0.03878606 -0.024655798 0.027382651 -0.19937532 -0.12347202 -0.016331084 -0.16187784 -0.1285697 0.10447255 -0.22255579 0.088947326 -0.02387626 0.19810611 0.22645731 -0.20370615 0.22464012 0.07123896 0.099593215 0.085192785 -0.1238883 0.0058182934 -0.1634242 0.21096 -0.1123782 -0.22241957 -0.18004817 0.16266705 0.11642526 0.22388044 0.29334998 0.08385519 0.22742046 0.12064654 -0.07165271 0.091503955 0.05221379 0.26718655 -0.07011593 -0.1157512 -0.10042822 0.19669743 0.06351477 0.11611639 -0.3757215 0.009052045 0.2604225 -0.018860288 0.091986 -0.11240301 0.18339153 -0.0076679336 0.08734257 0.1257618 0.0147954365 0.06505207 0.20458715 0.09239477 -0.17488469 -0.15985237 0.090845905 -0.10883058 0.58098984 -0.2066927 -0.0043687504 -0.21840496 -0.24630857 0.00777878 -0.011071785 -0.12268734
263 0.20514835 -0.02361937 0.03081792 0.024733357 0.038189046 0.17991452 -0.3617553 0.16254042 0.18385048 0.046223126 -0.029990884 0.1901817 -0.17252444 0.030812696 -0.23554978 0.10841818 0.104261935 -0.14759511 -0.0957196 -0.09645967 -0.070249 -0.020255333 0.12599172 0.017536221 -0.23417433 -0.09232634 0.006462768 -0.05403037 -0.088746384 0.32103956 0.0261649 0.031300765 -0.024511052 0.032439668 -0.1961957 -0.13750124 -0.019124232 -0.16244976 -0.124304645 0.10236741 -0.221025 0.078860424 -0.015729744 0.2002417 0.22135913 -0.19440418 0.21936941 0.07800198 0.11327357 0.08495968 -0.121786356 0.00016550049 -0.1695869 0.19613546 -0.116901465 -0.21623284 -0.17836536 0.15650487 0.10522212 0.22746657 0.30323207 0.09234691 0.22850125 0.11151002 -0.08122725 0.09742322 0.035509814 0.26246902 -0.08393897 -0.12813833 -0.09947937 0.20491077 0.06907059 0.12561555 -0.37578747 0.011080062 0.25632823 -0.01829684 0.09147977 -0.10502056 0.18722634 -0.01755017 0.084211454 0.12866537 0.033648282 0.07559266 0.19597048 0.10253047 -0.18091471 -0.14262038 0.09023634 -0.103110984 0.591447 -0.19959128 -0.007569125 -0.21673104 -0.237076 0.010078678 -0.010921524 -0.105503395
101 0.21677095 -0.023293309 0.021940485 0.019947127 0.04380274 0.1720258 -0.36083794 0.16583616 0.18139371 0.060162265 -0.039112244 0.20024638 -0.17801552 0.020612739 -0.2270786 0.11029544 0.09339489 -0.13360749 -0.08383609 -0.10106051 -0.06741981 -0.020266581 0.13515197 0.012475995 -0.21729343 -0.08981496 0.022661373 -0.060527284 -0.10010513 0.3378654 0.017919991 0.04057657 -0.030463407 0.033244036 -0.21068944 -0.12637052 -0.024081664 -0.17106017 -0.12449984 0.10266126 -0.21403551 0.07936212 -0.010805999 0.19055445 0.21532732 -0.21363877 0.20829307 0.07210322 0.09762633 0.09417919 -0.12414684 -0.009617198 -0.1621897 0.19263954 -0.10642213 -0.20481494 -0.16382398 0.15068167 0.11858045 0.22019652 0.3014266 0.080414936 0.22994117 0.124574214 -0.079969704 0.10267548 0.05051246 0.2648417 -0.06835061 -0.1088387 -0.11310798 0.20699437 0.06940348 0.13005343 -0.38770255 0.0012582663 0.2565757 -0.0022483051 0.09646459 -0.10691075 0.18340917 -0.016263751 0.08082653 0.11534748 0.024693632 0.07409797 0.19932964 0.10142342 -0.17987174 -0.14792664 0.10561069 -0.09818745 0.5863065 -0.20218638 -0.00502804 -0.2349884 -0.25195694 -0.0028265426 -0.01670584 -0.10948738
342 0.21628119 -0.03339678 0.035106648 0.023526968 0.03344676 0.16257784 -0.36463958 0.16470851 0.18544585 0.04458234 -0.034043018 0.20741418 -0.18267867 0.011515955 -0.23854442 0.10850095 0.10081758 -0.14572093 -0.094315745 -0.09237327 -0.06735389 -0.02183757 0.1337965 0.013352776 -0.22228998 -0.08609395 0.018954191 -0.067976445 -0.10017989 0.32567832 0.029066866 0.037524886 -0.041056234 0.019163758 -0.21461591 -0.13262174 -0.03366917 -0.18071453 -0.11758418 0.10270829 -0.22134975 0.091202974 -0.009496467 0.19311832 0.207588 -0.19489877 0.20981304 0.06714419 0.09927786 0.08937462 -0.1356201 -0.0087079145 -0.15687251 0.20963556 -0.10616312 -0.20269571 -0.18055798 0.15123764 0.10882203 0.22038938 0.30380297 0.07479334 0.2333406 0.11777292 -0.086238 0.090510525 0.051695947 0.26811928 -0.07433538 -0.12352518 -0.111549646 0.20432746 0.07113423 0.13336727 -0.37465864 0.013758186 0.25798312 -0.0040160674 0.09099996 -0.10988799 0.18241464 -0.018383028 0.087885365 0.12133005 0.02075888 0.071057454 0.191027 0.09220043 -0.18123847 -0.15968841 0.08467838 -0.106620364 0.57322216 -0.19294746 -0.010204108 -0.23423053 -0.25191566 0.0035752994 -0.022551246 -0.113830484
17 0.2128017 -0.02763119 0.0354785 0.025821324 0.042164333 0.17760366 -0.35552424 0.16213252 0.18039492 0.05711663 -0.024288144 0.19705975 -0.17889899 0.014518695 -0.22640897 0.09322835 0.091892235 -0.1284667 -0.08528418 -0.1033878 -0.071567275 -0.027277809 0.12713891 0.027645873 -0.23102106 -0.09400399 0.008597717 -0.06705642 -0.09465038 0.3168144 0.012646007 0.041711047 -0.02582856 0.031336367 -0.20961133 -0.1280359 -0.026450554 -0.16855471 -0.12140763 0.105879426 -0.2145104 0.09376501 -0.018991996 0.20088117 0.20716475 -0.20331708 0.21427578 0.079220735 0.11319969 0.10464221 -0.14054702 -0.0017897289 -0.16334021 0.2067312 -0.103635624 -0.22024211 -0.17177893 0.14226821 0.114764765 0.21842092 0.3005611 0.07861032 0.239689 0.114494264 -0.066239364 0.096019745 0.0424707 0.272488 -0.08167113 -0.11583567 -0.114290155 0.1881496 0.077161744 0.12292567 -0.37446755 0.015032171 0.2664564 -0.020130856 0.103221476 -0.10857511 0.1850229 -0.008667163 0.09742965 0.12327068 0.029166374 0.06290138 0.20179021 0.09959132 -0.17884108 -0.15352347 0.09865454 -0.10798047 0.591006 -0.18660468 -0.012268309 -0.22990274 -0.24431023 0.0077839363 -0.019883836 -0.104358464
378 0.20578356 -0.03556008 0.031408682 0.017049648 0.047899235 0.17771295 -0.3485128 0.1723225 0.1814286 0.06205107 -0.031775713 0.20331758 -0.18367754 0.018236978 -0.2380436 0.091421135 0.0972307 -0.14515802 -0.086609095 -0.10564381 -0.07238115 -0.018960986 0.13778941 0.017409673 -0.22158243 -0.08213053 0.012559413 -0.05578327 -0.09562469 0.33358037 0.01831859 0.04902666 -0.042847853 0.019225636 -0.19407138 -0.1346888 -0.032968357 -0.17433262 -0.113771066 0.0912141 -0.21953793 0.08505848 -0.01791627 0.2014298 0.21907955 -0.20329079 0.20834291 0.06739643 0.11214083 0.097477786 -0.12184161 -0.014073548 -0.16299409 0.20647228 -0.11700735 -0.22108358 -0.18066686 0.15555567 0.100785 0.23050942 0.3036949 0.094479226 0.22858042 0.10534163 -0.07577708 0.10396665 0.04074011 0.2578504 -0.08440359 -0.10890262 -0.093170054 0.19221571 0.06156914 0.12185323 -0.3806595 0.0197948 0.2675694 -0.01564925 0.08527306 -0.10318163 0.19578812 -0.0026067495 0.09690781 0.13080753 0.031966735 0.06619511 0.18581633 0.09171657 -0.16558596 -0.15877284 0.089486845 -0.10162811 0.58457994 -0.1881401 -0.004732522 -0.21998307 -0.25612473 0.009379074 -0.012867298 -0.11966263
19 0.20831035 -0.017193886 0.039656386 0.019949887 0.03548513 0.16565363 -0.35721207 0.17572601 0.17520536 0.05489846 -0.030016085 0.20132053 -0.17468216 0.016051054 -0.22471428 0.10472918 0.1046098 -0.13913652 -0.08802933 -0.09884739 -0.065955564 -0.01774027 0.13083473 0.01548819 -0.22420147 -0.09432163 0.019233022 -0.05625671 -0.09321469 0.32890302 0.02228815 0.04239927 -0.025493832 0.029786885 -0.20093101 -0.13683133 -0.027997015 -0.17637148 -0.12093547 0.08962927 -0.20504227 0.09464863 -0.014207317 0.19242296 0.21413776 -0.20078444 0.22203106 0.07406844 0.11019643 0.09723272 -0.12240232 -0.011545035 -0.15809618 0.20722722 -0.11527691 -0.20769465 -0.18013883 0.14646591 0.11232647 0.22163862 0.2997153 0.08725956 0.2238414 0.124161795 -0.068138845 0.09315892 0.036918946 0.27037004 -0.08208221 -0.12599857 -0.09968023 0.21004926 0.06281723 0.12987544 -0.38355622 0.009196181 0.26930153 -0.00064136565 0.08854 -0.103532426 0.18019852 -0.017557563 0.089502335 0.12563586 0.029940512 0.064725734 0.19718924 0.09334628 -0.18362905 -0.14082484 0.094375655 -0.09871121 0.59236914 -0.19313166 -0.017568434 -0.21735604 -0.25668868 -0.0056248456 -0.010206272 -0.12321035
475 0.20935985 -0.0177134 0.025223285 0.009379294 0.03573168 0.17961404 -0.35506898 0.1703749 0.17961647 0.057560857 -0.025167912 0.2053948 -0.18507728 0.023410944 -0.22237441 0.094923325 0.09358705 -0.14088635 -0.083940685 -0.10084677 -0.078025386 -0.020603172 0.13929217 0.02399544 -0.22489516 -0.09155675 0.026008641 -0.05847043 -0.091397256 0.33652627 0.013943168 0.05071366 -0.033387706 0.01923849 -0.19829957 -0.1287672 -0.028299797 -0.17030665 -0.11815991 0.09709619 -0.20885968 0.09300955 -0.0126193855 0.20500045 0.22097914 -0.20866555 0.21121836 0.07923908 0.10140787 0.09251357 -0.12852433 -0.00020500745 -0.17206775 0.20120656 -0.116785236 -0.2144165 -0.18379943 0.15716076 0.10601983 0.22821978 0.30039582 0.0781729 0.23791818 0.11578078 -0.0868514 0.106390744 0.049590725 0.25710538 -0.077278644 -0.11392101 -0.10191488 0.19207934 0.06521219 0.12828605 -0.37559858 0.0074879695 0.25712168 0.0001682308 0.08810548 -0.12175691 0.18131353 -0.0066363798 0.091177166 0.12287681 0.03321384 0.065870695 0.20448402 0.10095866 -0.17087689 -0.1622921 0.10480644 -0.100747906 0.583513 -0.19241723 -0.013255108 -0.21491705 -0.24367401 -0.0035766233 -0.01157955 -0.11054905
473 0.20912124 -0.03778243 0.039939485 0.01123569 0.033379946 0.16350104 -0.36389595 0.16662134 0.1718601 0.058008637 -0.026376829 0.18995844 -0.16743317 0.023186337 -0.2234502 0.09083122 0.09244165 -0.13447072 -0.09636191 -0.0925798 -0.07046188 -0.014349037 0.1297196 0.010843742 -0.22223341 -0.087501384 0.013170031 -0.055082835 -0.08533807 0.3260427 0.012102431 0.048154127 -0.02904717 0.032530315 -0.1954026 -0.13024355 -0.02393469 -0.16692917 -0.11403371 0.109085515 -0.21816799 0.08864983 -0.020537691 0.19301093 0.21932545 -0.20994084 0.2175304 0.07960629 0.114352226 0.09131572 -0.12375838 -0.011544347 -0.16599607 0.19815704 -0.115197316 -0.21004649 -0.17889947 0.15560669 0.115469776 0.2277652 0.3043075 0.084990785 0.23146775 0.11146579 -0.07110024 0.10629277 0.052143786 0.26664898 -0.08512191 -0.123675264 -0.10030934 0.1996319 0.07747284 0.12691897 -0.37757173 0.013278703 0.26355332 -0.015356406 0.104996786 -0.11988314 0.1804906 -0.018566316 0.09429496 0.11798144 0.034221612 0.06356354 0.18568695 0.09729677 -0.18174005 -0.15930387 0.09105588 -0.1069471 0.5934781 -0.20681892 -0.015453582 -0.21583705 -0.25315523 -0.0022882887 -0.022747312 -0.12513481
222 0.20633651 -0.035562087 0.028529419 0.01376345 0.029624514 0.1636893 -0.3506334 0.17261797 0.18806507 0.049665496 -0.032762147 0.19873549 -0.18100254 0.015688991 -0.23654212 0.09408368 0.09027338 -0.13827263 -0.092824206 -0.104990296 -0.07755242 -0.02873467 0.12748344 0.022432128 -0.22487482 -0.09399445 0.022210494 -0.059815828 -0.09353806 0.3359587 0.029511435 0.03563738 -0.03532771 0.018746752 -0.20841374 -0.12660602 -0.032298543 -0.17757726 -0.117223695 0.108693115 -0.21349713 0.082012594 -0.004153833 0.18915924 0.22216663 -0.20512018 0.21890555 0.06535377 0.0997144 0.085341915 -0.12133954 -0.0025116438 -0.16807978 0.19310324 -0.112027854 -0.2138841 -0.17590384 0.15768139 0.11533794 0.22007331 0.28517944 0.08308623 0.22704025 0.11854936 -0.08568713 0.10273664 0.03775432 0.2733339 -0.085812934 -0.12602197 -0.10527742 0.20828031 0.080807 0.12546015 -0.37536523 0.0048533054 0.25759006 -0.009517183 0.09676345 -0.118330814 0.19541508 -0.0069221403 0.082577765 0.13017766 0.030147906 0.07145101 0.18870218 0.09990936 -0.18517199 -0.14455537 0.10039626 -0.10691276 0.58419603 -0.20724842 -0.012429611 -0.21531536 -0.25210533 0.016884798 -0.026777785 -0.10305364
59 0.21693121 -0.031751484 0.023284087 0.021285305 0.047414225 0.17306302 -0.34924555 0.1613469 0.16957468 0.045121975 -0.028560506 0.20438583 -0.18305935 0.01693691 -0.236976 0.10688835 0.08697663 -0.13418055 -0.08230999 -0.09250726 -0.066178344 -0.015434245 0.1307297 0.008457137 -0.23237334 -0.08589131 0.025292046 -0.053229235 -0.082298934 0.32934314 0.030309433 0.04811109 -0.033342894 0.021892596 -0.20645511 -0.12617186 -0.02126831 -0.17174423 -0.119188555 0.09321666 -0.2095709 0.08972228 -0.013605171 0.20340349 0.20931871 -0.21044849 0.21127416 0.07024751 0.10214058 0.08441577 -0.13115466 -0.0042504007 -0.17396037 0.19915959 -0.10463512 -0.22349623 -0.17564331 0.16447474 0.10749388 0.22350378 0.30342475 0.07767232 0.23794821 0.11441389 -0.07241984 0.10353786 0.037232533 0.2650243 -0.06839641 -0.123380795 -0.09668491 0.20366754 0.08006586 0.13099355 -0.38783228 0.0018425612 0.26773736 -0.0028897347 0.10294611 -0.10366709 0.18329096 -0.012414449 0.09470953 0.12903346 0.020470396 0.07150245 0.1964022 0.09274775 -0.16645314 -0.14873481 0.085787825 -0.10762197 0.5753543 -0.20730166 -0.0048368876 -0.22876993 -0.24614765 -0.0011722284 -0.011346941 -0.11505352
23 0.2126394 -0.032034893 0.037323352 0.018935544 0.044153575 0.17124078 -0.3480866 0.16105238 0.17185163 0.05537893 -0.022935107 0.19751577 -0.17913987 0.020784218 -0.21985066 0.10038144 0.08963205 -0.14331967 -0.0938452 -0.10589253 -0.063275225 -0.018323584 0.13181585 0.010821911 -0.22205485 -0.08283177 0.0108809015 -0.06534998 -0.08689209 0.33116212 0.027730824 0.044949513 -0.041747674 0.029736556 -0.210484 -0.13821466 -0.03336172 -0.16013925 -0.11929202 0.08954493 -0.21850406 0.08041698 -0.011796668 0.20062618 0.21403846 -0.20293464 0.21979631 0.080876954 0.10636195 0.09424119 -0.12168727 -0.0073739593 -0.17053428 0.20143896 -0.11793589 -0.20771405 -0.17813532 0.14991562 0.11740114 0.2310531 0.2867679 0.081931435 0.23200318 0.11981178 -0.08152043 0.10006145 0.049437735 0.26735598 -0.08745151 -0.114300564 -0.11280189 0.19606929 0.08175893 0.12844639 -0.38646844 0.004764519 0.263822 -0.01828873 0.10566824 -0.12176096 0.18944696 -0.018434176 0.085465856 0.11221421 0.021408444 0.05794884 0.19080073 0.097352505 -0.16648822 -0.15699169 0.087078646 -0.10561171 0.59249264 -0.19506188 -0.013130984 -0.22924206 -0.2533329 0.0151726445 -0.02514839 -0.116947494
253 0.21825919 -0.032050774 0.030522058 0.013247352 0.047135063 0.16949746 -0.35898444 0.1781979 0.17960858 0.04888928 -0.019105151 0.20665461 -0.16966484 0.014557388 -0.22630042 0.10765766 0.1070656 -0.14231609 -0.08237846 -0.10446828 -0.067402974 -0.024120418 0.13682824 0.018864864 -0.23398282 -0.08737585 0.017386418 -0.05937059 -0.0831764 0.3320306 0.016824098 0.043601677 -0.04488042 0.03328356 -0.20249721 -0.12967789 -0.021546736 -0.17675176 -0.12812194 0.107981965 -0.20997196 0.08892153 -0.00635918 0.18607482 0.2112015 -0.19316743 0.22128972 0.0752207 0.098799326 0.100094624 -0.12979954 -0.007160434 -0.17251398 0.20334084 -0.118258655 -0.21784987 -0.16814096 0.16275214 0.11142474 0.22801122 0.2929675 0.088630125 0.22906777 0.114065744 -0.07024565 0.10086659 0.036239333 0.27408907 -0.066647775 -0.1179335 -0.111479044 0.18883981 0.07562825 0.12167261 -0.37959254 0.0011968256 0.251978 -0.00012894602 0.10171367 -0.10695023 0.18711095 -0.02054771 0.085419014 0.119104676 0.03145795 0.07184548 0.19409914 0.09725301 -0.17775159 -0.1512472 0.08430425 -0.10367869 0.58056635 -0.19683346 -0.0068513905 -0.22696021 -0.25110897 0.0077313674 -0.023654059 -0.11474512
266 0.21871422 -0.03288312 0.038252007 0.01414439 0.043526303 0.18139452 -0.35724974 0.17437825 0.17850842 0.058180515 -0.036405053 0.19809152 -0.17171383 0.029723028 -0.22461104 0.10822657 0.10392405 -0.14620967 -0.09014525 -0.09280948 -0.06962939 -0.032223973 0.12952375 0.023930486 -0.2172138 -0.09178524 0.00923275 -0.059996072 -0.08700669 0.32417864 0.025211714 0.034594662 -0.030617766 0.033673827 -0.20894825 -0.13506776 -0.017903522 -0.16697298 -0.12715836 0.09067567 -0.22370166 0.09529888 -0.018432286 0.19019412 0.22594833 -0.21187079 0.20504205 0.07053128 0.11354014 0.102242574 -0.12454387 0.005349205 -0.16445795 0.19780804 -0.11918782 -0.20701553 -0.1813145 0.15817909 0.10110802 0.21838476 0.2917959 0.08115392 0.23562309 0.11377483 -0.08294763 0.09160286 0.050819747 0.27280197 -0.0826427 -0.12165267 -0.10807078 0.188124 0.07395454 0.1225487 -0.36629108 0.022703845 0.26488593 -0.013671893 0.099724814 -0.10955604 0.19106433 -0.017453209 0.08189016 0.12593438 0.020419056 0.06978503 0.20209987 0.09943291 -0.17080994 -0.15331128 0.08847116 -0.10188769 0.5914988 -0.19660564 -0.0054600043 -0.21573646 -0.25220907 0.012046039 -0.024217576 -0.12149832
217 0.21922915 -0.03419804 0.04173653 0.009663807 0.046347138 0.18073915 -0.36094418 0.17697161 0.18613693 0.06069282 -0.021117453 0.1992708 -0.17343424 0.019029899 -0.23411368 0.10244893 0.106835976 -0.14870097 -0.09503541 -0.09440628 -0.076460615 -0.030604502 0.14434151 0.012019443 -0.22718441 -0.09379176 0.014890722 -0.060963914 -0.10184205 0.33003724 0.026596822 0.0429061 -0.04082842 0.022949178 -0.20127818 -0.12683031 -0.033123072 -0.17945787 -0.12709883 0.102128096 -0.21661817 0.07824238 -0.014535303 0.18783078 0.21440661 -0.19114268 0.21725023 0.0728658 0.111368634 0.103118636 -0.12082636 0.0026214488 -0.17367654 0.21019839 -0.10623939 -0.21648955 -0.18035218 0.1522156 0.1053682 0.2097106 0.29912785 0.08845367 0.24194978 0.10406964 -0.067653775 0.09392235 0.033412825 0.2689141 -0.07352221 -0.13035226 -0.09845879 0.19486037 0.063604474 0.13309804 -0.37691113 0.018825607 0.2551229 -0.01599768 0.09745621 -0.10006797 0.19635518 -0.0029042286 0.08806219 0.111768566 0.021556644 0.05442651 0.20384388 0.084698245 -0.17995898 -0.15195344 0.09646353 -0.10780361 0.577765 -0.19192918 -0.006577094 -0.22468531 -0.23737924 0.0024919373 -0.028217487 -0.10715879
262 0.21463956 -0.022589272 0.03667544 0.013339148 0.030188598 0.18192145 -0.35299197 0.17236254 0.17488031 0.053690806 -0.028438758 0.20719835 -0.18482506 0.0218146 -0.23816457 0.10475054 0.10644032 -0.14305419 -0.08985291 -0.108007856 -0.062955484 -0.017828986 0.13143957 0.019883178 -0.21782348 -0.088042796 0.004475271 -0.061834585 -0.092468075 0.31939813 0.022132793 0.034217004 -0.033813957 0.01993725 -0.20988041 -0.13153537 -0.01988243 -0.16507228 -0.12843326 0.09961498 -0.2079368 0.09302583 -0.013526056 0.20308886 0.22236991 -0.19488108 0.20431793 0.06968858 0.09450633 0.094880834 -0.12601526 -0.014664547 -0.1743758 0.2041333 -0.10683463 -0.21578552 -0.17896473 0.15384383 0.11449275 0.22710748 0.30011806 0.09357697 0.2347428 0.11456531 -0.070326604 0.10232498 0.04814313 0.26106533 -0.069062755 -0.12272035 -0.10298643 0.19144914 0.06290614 0.13277137 -0.37823492 0.018507825 0.26270697 -0.017358014 0.09853716 -0.109615095 0.1757572 -0.018073346 0.08217758 0.11454312 0.03135984 0.06181457 0.20247985 0.08885546 -0.1821063 -0.14673837 0.08576902 -0.09838712 0.58434844 -0.19685233 -0.005990636 -0.22593406 -0.24885294 0.014799375 -0.009873591 -0.10848245
408 0.21291293 -0.022812814 0.022841359 0.008115 0.037359715 0.17482257 -0.3538616 0.16580372 0.18353519 0.04694027 -0.020223495 0.20771757 -0.17492332 0.024716664 -0.23811415 0.093173034 0.088467784 -0.1468042 -0.085689604 -0.09347923 -0.061320927 -0.023826817 0.14432663 0.015166888 -0.22520608 -0.09686661 0.010840378 -0.055712856 -0.0927732 0.3312973 0.0122054415 0.04771958 -0.043262932 0.028235987 -0.20552604 -0.13430744 -0.020904802 -0.16687411 -0.13029948 0.10323268 -0.21125977 0.07633569 -0.008514115 0.19208553 0.21417758 -0.2067512 0.2150942 0.07408589 0.1024507 0.10239729 -0.1360421 -0.011984142 -0.15656307 0.19225523 -0.11927944 -0.21786603 -0.1702131 0.15918028 0.09775035 0.21919914 0.2984387 0.08941244 0.22959335 0.10860649 -0.0785705 0.111018546 0.040836323 0.26229596 -0.07075286 -0.11915055 -0.09735615 0.20769097 0.069450155 0.13026504 -0.38241675 0.008587247 0.2612534 -0.012996932 0.088070765 -0.12025608 0.1903046 -0.006295199 0.09349475 0.11342975 0.029423928 0.06505875 0.19567302 0.08431141 -0.17705853 -0.14779213 0.0988805 -0.10199048 0.5897185 -0.19623645 -0.012635508 -0.2205225 -0.25152662 0.008837138 -0.019582065 -0.119998075
87 0.21040717 -0.026897933 0.036235154 0.00830165 0.046340354 0.17830326 -0.36170125 0.16725612 0.18201527 0.059974395 -0.018500833 0.21205246 -0.18619108 0.01606079 -0.22143343 0.093033694 0.098552376 -0.13509333 -0.09210317 -0.10724136 -0.062328637 -0.028287929 0.13990533 0.0105407825 -0.22599661 -0.08264391 0.01997591 -0.049347088 -0.095503345 0.33826512 0.026765145 0.051333465 -0.040341742 0.03593981 -0.20155159 -0.12871526 -0.01666471 -0.1646862 -0.12903741 0.089361645 -0.21891415 0.093768865 -0.020353125 0.19355747 0.22586165 -0.20185825 0.21835779 0.079720885 0.104240514 0.09452778 -0.13864805 -0.0005439861 -0.17007257 0.20014802 -0.10685355 -0.21083936 -0.16338028 0.14744866 0.11954247 0.22078127 0.28625563 0.09015669 0.23644905 0.1165202 -0.069585316 0.0950435 0.04053836 0.2725394 -0.06602987 -0.12858197 -0.10258012 0.19180886 0.067565165 0.123110324 -0.3853042 0.0022636128 0.25012118 -0.004050911 0.095867455 -0.10416185 0.1902554 -0.005357476 0.08601404 0.11276702 0.034755245 0.0579042 0.20341143 0.09877793 -0.18405882 -0.14773734 0.0861557 -0.09553486 0.5787578 -0.18741813 -0.014068099 -0.2335397 -0.24842171 0.004657206 -0.008223417 -0.10918858
64 0.22222358 -0.027409486 0.033064455 0.018438952 0.039127644 0.17762516 -0.35327795 0.17534137 0.1858625 0.04672621 -0.022876482 0.2068203 -0.18039304 0.027281329 -0.234977 0.10344402 0.09555145 -0.13336442 -0.08223082 -0.09124305 -0.06943257 -0.017856752 0.13845903 0.015375327 -0.23325004 -0.081318565 0.0013140274 -0.054643396 -0.0902086 0.32795984 0.0129870875 0.048731707 -0.03651736 0.025716698 -0.20476502 -0.13322434 -0.023348233 -0.17977616 -0.12171015 0.10698676 -0.21797512 0.07863525 -0.003666286 0.19754873 0.20617402 -0.20553833 0.20670202 0.076757714 0.094891295 0.095485695 -0.1255554 -0.014330767 -0.16073991 0.20615229 -0.1079168 -0.22034645 -0.17667031 0.15695167 0.10297656 0.22318625 0.2966059 0.08817768 0.22561756 0.1042301 -0.084659286 0.099019565 0.037124794 0.26802185 -0.06813285 -0.111441046 -0.100819916 0.20337753 0.073914826 0.13018891 -0.38689792 0.0021114314 0.26716614 -0.00010356899 0.09387359 -0.10931254 0.17540123 -0.015965762 0.08298293 0.123213604 0.024405736 0.073892705 0.20120563 0.08507697 -0.17625137 -0.15527272 0.09267162 -0.10598091 0.5759534 -0.199872 -0.0032808927 -0.22948861 -0.25025114 0.0041948487 -0.014903751 -0.10470134
346 0.2119962 -0.027912024 0.031709164 0.011056935 0.04502089 0.16395694 -0.3536577 0.1787735 0.17132665 0.04623623 -0.03611167 0.21105582 -0.17315216 0.012418028 -0.22007713 0.088701226 0.09326387 -0.14924957 -0.07986814 -0.09582321 -0.06379229 -0.022903875 0.14203066 0.027342169 -0.22451678 -0.0925082 0.0148708895 -0.061383218 -0.08557898 0.3186162 0.030710239 0.044778943 -0.036267646 0.030341933 -0.20752153 -0.13149314 -0.025897969 -0.17742011 -0.11985387 0.10214369 -0.21346943 0.08201198 -0.0139201805 0.18680257 0.22046307 -0.20048188 0.2164612 0.06720843 0.113995664 0.10343582 -0.13896008 -0.0045022853 -0.17335527 0.19763078 -0.1039617 -0.22401528 -0.1711898 0.1608396 0.10749677 0.21952759 0.2974686 0.0765903 0.24173678 0.10566523 -0.075850576 0.10591373 0.045360062 0.257941 -0.06764076 -0.1277733 -0.10931774 0.18974286 0.07082899 0.13461027 -0.39016554 0.012667585 0.2565223 -0.0030272815 0.08718244 -0.10442839 0.19174567 -0.01678827 0.085769705 0.12158499 0.021703444 0.05692003 0.18898477 0.08993418 -0.18488735 -0.1443438 0.09661769 -0.10729144 0.58803064 -0.20340706 -0.012852461 -0.22061123 -0.2505007 -0.0026834318 -0.027384879 -0.11334525
299 0.2013228 -0.023707526 0.040036045 0.019873518 0.03963063 0.17988926 -0.35970142 0.16648507 0.1892181 0.05074815 -0.022606838 0.19988994 -0.16974871 0.018614227 -0.23913084 0.10513345 0.09615522 -0.14724246 -0.08037391 -0.10083337 -0.07335086 -0.014236777 0.14403374 0.012987953 -0.23474304 -0.08004268 0.023767091 -0.054829035 -0.10264296 0.32377163 0.02821154 0.04565238 -0.041350037 0.016305346 -0.20377673 -0.13153681 -0.018211232 -0.17052777 -0.118468404 0.0916545 -0.21308963 0.08170568 -0.019924307 0.18774296 0.22283809 -0.21055575 0.22514035 0.078721225 0.09481933 0.09139199 -0.13770224 -0.010097702 -0.16758877 0.21197502 -0.10965479 -0.2130154 -0.18173598 0.14513205 0.115544 0.21055329 0.2862288 0.081220716 0.2264012 0.11782769 -0.084613055 0.101224475 0.04021294 0.26362234 -0.06996068 -0.12520494 -0.0940424 0.19775818 0.073920116 0.12779787 -0.38536027 0.0029119027 0.25583148 -0.018415766 0.099618584 -0.10604191 0.19489405 -0.00208366 0.096587196 0.11352875 0.01825493 0.06774361 0.18626371 0.09638446 -0.17656508 -0.14121437 0.09996778 -0.10598164 0.5810767 -0.20724536 -0.0058436533 -0.21993276 -0.24642071 0.014292057 -0.0076018106 -0.10923528
143 0.21134691 -0.026560016 0.033405114 0.017516209 0.037708074 0.17808814 -0.35984543 0.15937416 0.16890734 0.051181465 -0.026471142 0.19170403 -0.17729944 0.011949515 -0.2307944 0.08960596 0.09251666 -0.13915357 -0.080602095 -0.09703874 -0.07024475 -0.027479408 0.14219683 0.018631933 -0.2174286 -0.09411185 0.008549886 -0.06705458 -0.084676325 0.31618056 0.017408403 0.033174563 -0.043453705 0.019744344 -0.21220796 -0.12847278 -0.023392156 -0.18115886 -0.12733297 0.099398606 -0.21883282 0.08015441 -0.023567379 0.20424499 0.2144732 -0.21088737 0.22485854 0.07464336 0.10675532 0.09585392 -0.12213427 -0.012593175 -0.15889046 0.20092408 -0.11650814 -0.22016314 -0.16952059 0.163454 0.10146928 0.21927933 0.28521 0.08723896 0.23066539 0.1198336 -0.08541772 0.11068073 0.03386783 0.27313584 -0.08097619 -0.11444844 -0.105887294 0.19616619 0.07328299 0.12082289 -0.38000953 0.0037316193 0.26550335 -0.0011866811 0.088335134 -0.102815 0.18506686 -0.016986648 0.08530312 0.11017586 0.020160075 0.056020107 0.18417518 0.09756616 -0.16633816 -0.15729989 0.100031726 -0.107903756 0.59162194 -0.20242919 -0.0027111878 -0.2300813 -0.2549445 -0.0039311266 -0.024575341 -0.1180498
355 0.20802435 -0.03544641 0.035481516 0.009265548 0.032065712 0.16686317 -0.3566799 0.16206771 0.18213075 0.058601867 -0.02423048 0.19790617 -0.16723049 0.029307773 -0.23842435 0.09562229 0.10699193 -0.1429652 -0.08009718 -0.10748264 -0.06016482 -0.022190053 0.1360199 0.022304231 -0.23443371 -0.0825571 0.013141244 -0.05663255 -0.09907747 0.3244492 0.030128269 0.03189324 -0.04127027 0.031295065 -0.1942579 -0.13694023 -0.022683585 -0.16682924 -0.13303223 0.09081801 -0.22424287 0.08468857 -0.006862038 0.1978263 0.20830306 -0.20909 0.2088518 0.0775028 0.112300225 0.09870918 -0.13861011 0.0007404294 -0.16907199 0.21420254 -0.104087 -0.22277936 -0.1807627 0.15358266 0.109053746 0.21272881 0.2961683 0.08999997 0.22925164 0.11958958 -0.08001156 0.101318054 0.050980758 0.26403397 -0.07102666 -0.12559254 -0.112158865 0.20414245 0.07591942 0.123084605 -0.38738292 0.0076579247 0.25359425 -0.0054227947 0.089446485 -0.11754125 0.18922712 -0.0024883307 0.08432374 0.12478626 0.02418902 0.0583865 0.1912555 0.08802483 -0.17122006 -0.15155274 0.09803922 -0.09016074 0.5859553 -0.18586467 -0.0094341 -0.22688617 -0.24732417 0.013086328 -0.01371877 -0.110759
324 0.21199709 -0.033072926 0.025684405 0.018105082 0.030075295 0.16337511 -0.35532197 0.17061853 0.18309997 0.053935103 -0.016850017 0.19974126 -0.17977877 0.03012915 -0.2200725 0.09223219 0.095162846 -0.1438565 -0.09280687 -0.10984738 -0.07355141 -0.019858165 0.12806858 0.019806048 -0.22940223 -0.09345785 0.009681461 -0.06363986 -0.09255417 0.3352981 0.02919947 0.049406864 -0.04265827 0.022925764 -0.20685664 -0.13024776 -0.02866119 -0.17603284 -0.11838106 0.09927818 -0.21530773 0.076325305 -0.017846186 0.19527029 0.22238022 -0.19539522 0.20693041 0.07089606 0.10751296 0.084868014 -0.14274122 0.0022286908 -0.17464973 0.19753207 -0.100247905 -0.22110052 -0.17920557 0.15327881 0.10937404 0.21834949 0.30011332 0.08095351 0.2385739 0.12359271 -0.06683073 0.10663089 0.048203565 0.2612878 -0.072860345 -0.11818013 -0.10295039 0.20569247 0.0647489 0.12678571 -0.38401365 0.016121037 0.26356995 -0.0009459176 0.09953911 -0.10827505 0.18050928 -0.008139409 0.09498839 0.12878466 0.034319647 0.052818585 0.19012333 0.0854405 -0.1794406 -0.15415141 0.09572704 -0.09737563 0.58393484 -0.1900966 -0.0019418893 -0.22232296 -0.2541516 0.01053134 -0.020170864 -0.112776734
232 0.22118625 -0.03458645 0.02729522 0.013603613 0.03336236 0.16133861 -0.36638996 0.17573608 0.17409614 0.046506386 -0.03689033 0.19698031 -0.167647 0.026317818 -0.23953223 0.1052366 0.095513865 -0.14620253 -0.08479233 -0.09288532 -0.07103676 -0.015381733 0.14618385 0.026166253 -0.23418146 -0.0867741 0.021920716 -0.051467124 -0.0871284 0.33500087 0.011752295 0.036148738 -0.033267852 0.029571787 -0.20558047 -0.11920821 -0.030014805 -0.17919974 -0.12745257 0.09568894 -0.22299957 0.07746303 -0.010541791 0.19533156 0.2111713 -0.21194597 0.21438135 0.08062919 0.11114157 0.10314272 -0.13295351 -0.013418632 -0.1712134 0.20911986 -0.10389 -0.20231815 -0.16341893 0.1594088 0.10887463 0.21644388 0.29693842 0.085054494 0.2299066 0.11388237 -0.06764487 0.1061002 0.052046373 0.26730856 -0.075046495 -0.10909031 -0.10522599 0.20813377 0.062722586 0.13087715 -0.38209257 0.011422282 0.26118174 -0.015548686 0.098810054 -0.11916258 0.18500885 -0.0060300035 0.088948436 0.11835244 0.036453806 0.072087094 0.1994962 0.09857601 -0.17225875 -0.14067437 0.09374267 -0.102728605 0.57181346 -0.18998174 -0.008304651 -0.21821325 -0.2555774 0.0055298754 -0.019472927 -0.111118324
335 0.20677201 -0.018940529 0.037523333 0.009495298 0.02907866 0.16519749 -0.3669646 0.16403064 0.18223174 0.05216585 -0.022307502 0.21365051 -0.17459977 0.03074371 -0.23349376 0.09589497 0.09537494 -0.13534465 -0.08820058 -0.11285116 -0.07587564 -0.03522978 0.14236502 0.016255395 -0.2381843 -0.08914664 0.01636832 -0.06629537 -0.08526204 0.34042096 0.013725615 0.043949995 -0.040772457 0.032229837 -0.19962165 -0.12689087 -0.017238325 -0.18087037 -0.12639399 0.09550719 -0.22238402 0.0835275 -0.0115046995 0.19265725 0.2121876 -0.20404835 0.21037893 0.08621198 0.10871824 0.08643768 -0.13793595 -0.0049132006 -0.1794486 0.1984579 -0.1089249 -0.20728853 -0.16922815 0.16332906 0.12104681 0.23000258 0.293809 0.08515467 0.22883925 0.106475115 -0.067083545 0.10276809 0.04234725 0.2617421 -0.065922454 -0.12326621 -0.098853394 0.19177262 0.07758216 0.1318999 -0.3840288 0.021771973 0.25874105 -0.012146718 0.08645994 -0.114899606 0.18208613 -0.009945201 0.09724584 0.115787104 0.026580667 0.056809925 0.2019011 0.086118065 -0.17962609 -0.14559601 0.10042749 -0.09496767 0.58134335 -0.1958166 0.00051770644 -0.21774068 -0.24108513 0.008407507 -0.010496789 -0.10768267
321 0.20437062 -0.016426047 0.025514968 0.021059815 0.042040836 0.16509202 -0.35033536 0.16382286 0.17824164 0.054334566 -0.03191675 0.1992561 -0.16887078 0.0129401535 -0.23622519 0.102313735 0.10087149 -0.14175563 -0.09037711 -0.10977549 -0.08096494 -0.01990708 0.13571566 0.016468009 -0.22003157 -0.097600296 0.01346449 -0.047559533 -0.09542574 0.33571723 0.011453841 0.033311214 -0.033310518 0.026624847 -0.21623582 -0.13817525 -0.016911983 -0.18045673 -0.12000031 0.10162716 -0.21627197 0.090843864 -0.006741316 0.20184909 0.22087835 -0.19641376 0.22262226 0.06854862 0.10219637 0.088674106 -0.12999767 -0.006617238 -0.16744834 0.19771184 -0.11537421 -0.21035166 -0.1825625 0.161367 0.11684685 0.22819538 0.2981345 0.08877422 0.22518624 0.10337202 -0.08711622 0.10346353 0.033979475 0.27289125 -0.0844395 -0.12898782 -0.112043954 0.19000907 0.07393763 0.11878551 -0.38825166 0.015700107 0.25113383 -0.006783533 0.10257402 -0.108090475 0.18328725 -0.014912243 0.0858364 0.12240621 0.016118957 0.061249796 0.20042296 0.09571089 -0.16706842 -0.14012823 0.1039827 -0.09593327 0.58666515 -0.20250687 0.0014695288 -0.21532997 -0.24398564 -0.00039105475 -0.020023117 -0.10942358
371 0.21509257 -0.032419592 0.037133522 0.01491179 0.036320593 0.16477022 -0.36071187 0.18035157 0.17939515 0.050963435 -0.03410931 0.20112613 -0.17864229 0.022100002 -0.23992239 0.10404208 0.09701685 -0.13201815 -0.09017206 -0.10972502 -0.06713822 -0.03207085 0.13965295 0.023874125 -0.22986476 -0.09599457 0.008286699 -0.046136476 -0.0845183 0.32384422 0.028498944 0.03424299 -0.0353601 0.025574455 -0.20049192 -0.12083429 -0.015033063 -0.17708293 -0.124707215 0.097519666 -0.20510186 0.08900568 -0.015517015 0.18549186 0.21808541 -0.20091888 0.22322956 0.075414814 0.11106058 0.08972916 -0.14236623 -0.011540754 -0.16491953 0.19950709 -0.11005013 -0.2155046 -0.16669673 0.14673795 0.11701607 0.21160765 0.30057994 0.08095808 0.24219012 0.12446181 -0.07409145 0.10921496 0.036183424 0.25909945 -0.070648715 -0.11549011 -0.09955005 0.19595729 0.062366247 0.13011341 -0.38242546 0.013515618 0.25166452 -0.015801325 0.08360383 -0.11362527 0.19714798 -0.0077759125 0.097522534 0.1296687 0.015543523 0.05727921 0.19331391 0.09623142 -0.17123207 -0.1397979 0.08793324 -0.09466869 0.5924411 -0.1875819 -0.00023728986 -0.2333084 -0.25112745 0.0080680065 -0.024093227 -0.11806258
313 0.2138254 -0.033283465 0.036496636 0.023433939 0.04340821 0.17942645 -0.36254656 0.16615985 0.18051746 0.054933712 -0.02584315 0.19586685 -0.16853751 0.023939641 -0.2331648 0.0939859 0.11097821 -0.13697836 -0.091913074 -0.111984015 -0.07460944 -0.029777521 0.14918448 0.010632177 -0.22974245 -0.085540816 0.0035741879 -0.061212756 -0.086872935 0.3350089 0.02450548 0.030596312 -0.029093612 0.029602023 -0.21028937 -0.12293123 -0.025167195 -0.18002304 -0.1131547 0.098358415 -0.20927574 0.08317903 -0.007431622 0.20262152 0.22387284 -0.21069849 0.20418201 0.075641796 0.09515949 0.102222174 -0.12873411 -0.014551985 -0.16877507 0.21170312 -0.11635166 -0.20298108 -0.17757465 0.1434634 0.10665994 0.22831081 0.30425078 0.07879303 0.22514664 0.115365855 -0.074490406 0.09973674 0.029820232 0.26775151 -0.08193857 -0.12965342 -0.10222164 0.1994834 0.0649493 0.132151 -0.38324288 0.02060645 0.26086277 -0.015353828 0.09115509 -0.117933445 0.18428215 -0.0113502145 0.09329264 0.11118195 0.015983514 0.059435077 0.1855223 0.098608784 -0.17919108 -0.14806491 0.09026246 -0.09969073 0.5750577 -0.20098737 -0.0070779566 -0.22136529 -0.2504327 -0.001761888 -0.006968399 -0.11316124
200 0.20968202 -0.021358034 0.03441346 0.006621329 0.028646259 0.18098187 -0.35357416 0.17923154 0.18575743 0.046079878 -0.019741425 0.19823174 -0.1756175 0.01894175 -0.22130668 0.09410534 0.091478944 -0.14941536 -0.08374721 -0.097703114 -0.07806656 -0.03334536 0.1445125 0.02814156 -0.22163217 -0.09362511 0.0056170854 -0.048899554 -0.08372421 0.33006695 0.016958311 0.036739692 -0.034828193 0.03406884 -0.20963097 -0.12690686 -0.020360852 -0.16693327 -0.11274361 0.092255086 -0.21272877 0.09447075 -0.017436543 0.1922981 0.22043304 -0.21050736 0.2096172 0.078673 0.10922127 0.103744134 -0.13275507 -0.0027056772 -0.16592956 0.2062431 -0.105582945 -0.20764624 -0.18372373 0.14550914 0.10202114 0.21037674 0.2981796 0.077332325 0.24232407 0.104928724 -0.081343405 0.10043498 0.03624502 0.27112636 -0.08038314 -0.12863664 -0.09717353 0.20673193 0.078231655 0.1333613 -0.38884923 0.022461604 0.25958166 -0.0023430581 0.09224257 -0.11896357 0.18412684 -0.01300136 0.09233687 0.1256708 0.020560332 0.072826914 0.20514274 0.09143147 -0.18007569 -0.14132656 0.088363394 -0.1056943 0.5840873 -0.18808056 -0.00813277 -0.21720509 -0.2490567 0.0153762465 -0.025362426 -0.103571504
195 0.21495534 -0.02172986 0.0245389 0.009954498 0.03887052 0.17142548 -0.3501251 0.17655201 0.18173148 0.051886752 -0.034709502 0.20080006 -0.16902056 0.02665707 -0.22119397 0.097523704 0.098004304 -0.14964429 -0.09028564 -0.10162548 -0.07461994 -0.023804743 0.14605281 0.022118963 -0.22540118 -0.08409357 0.013625482 -0.04865258 -0.09410022 0.31966597 0.026105901 0.035499677 -0.030803427 0.03513357 -0.21202885 -0.13021263 -0.01748331 -0.1622134 -0.12952766 0.0965129 -0.2118935 0.07720309 -0.0068491786 0.18712792 0.2283367 -0.20867753 0.20853592 0.08344855 0.09728585 0.08779917 -0.13044535 -0.010404844 -0.1616902 0.20772968 -0.09854147 -0.22171606 -0.17148705 0.1478261 0.102887206 0.22595021 0.30452886 0.08068354 0.23647496 0.10507793 -0.07410741 0.10379888 0.036235288 0.26975942 -0.066828765 -0.12788448 -0.0960308 0.18861611 0.07337002 0.11660089 -0.38896313 0.011456088 0.2654807 -0.012442856 0.09990627 -0.1133855 0.1875827 -0.014166373 0.08835421 0.11440777 0.022027688 0.071903564 0.18902639 0.089451425 -0.18720295 -0.1520798 0.09231198 -0.10301854 0.58534664 -0.19485256 -0.014508045 -0.23255815 -0.24866179 0.0129806185 -0.022977311 -0.11252286
469 0.20660946 -0.015674824 0.032397166 0.014870715 0.027394144 0.1656836 -0.3610339 0.17862543 0.18670471 0.049543463 -0.023451453 0.20914751 -0.17552373 0.021796864 -0.22329232 0.09430228 0.11158348 -0.13987273 -0.09730764 -0.100274846 -0.07578669 -0.027425477 0.13381606 0.025092663 -0.22850545 -0.085026264 0.016893923 -0.050565135 -0.09359289 0.33170536 0.018851627 0.048859768 -0.04200921 0.017464472 -0.21021162 -0.13944462 -0.019420326 -0.17180017 -0.116367474 0.10490471 -0.22212322 0.08205628 -0.01675071 0.18603213 0.21928069 -0.19482271 0.22325584 0.06442412 0.09642322 0.089453265 -0.13333277 -0.008926904 -0.15888074 0.1971243 -0.10046239 -0.22151789 -0.16827072 0.15054055 0.114465214 0.21141082 0.3053692 0.089094415 0.23889938 0.112676404 -0.071248285 0.11142083 0.031659704 0.27711627 -0.0649811 -0.11896152 -0.1052442 0.2075398 0.08064861 0.12773082 -0.37156233 0.01624119 0.2608883 -0.015697177 0.08722617 -0.11852439 0.17904384 -0.0075438716 0.0828614 0.13286334 0.01569908 0.061718322 0.19615589 0.088708654 -0.17524809 -0.1444988 0.102786325 -0.10417883 0.5814792 -0.19703422 -0.004368522 -0.21526562 -0.24861726 -0.0023925907 -0.020007497 -0.1118311
406 0.20851102 -0.028323442 0.0302412 0.01424538 0.040060993 0.17445424 -0.36656544 0.16693331 0.18203111 0.056388374 -0.019541696 0.2073567 -0.16833414 0.014708934 -0.23530541 0.089755744 0.11058298 -0.13452886 -0.09552659 -0.10884616 -0.072123215 -0.027593104 0.12697487 0.01109933 -0.2169565 -0.09752185 0.022767039 -0.057327252 -0.0844382 0.32798555 0.02162374 0.0468382 -0.028277585 0.028945317 -0.19524647 -0.12976748 -0.018084057 -0.16725382 -0.11266115 0.1083185 -0.20942628 0.0964397 -0.0062233233 0.18706264 0.21929638 -0.20212856 0.21118873 0.07473398 0.11517753 0.104740955 -0.12941553 -0.007636448 -0.17012438 0.20750046 -0.10202205 -0.20403023 -0.17375171 0.14505138 0.11718228 0.23156993 0.3014912 0.08797266 0.23852834 0.12407461 -0.074992806 0.10014798 0.0499736 0.26236987 -0.06837438 -0.12366966 -0.094335705 0.18846233 0.06005842 0.13288186 -0.38789386 0.01407693 0.25249717 -0.019446578 0.08334866 -0.10907406 0.18986501 -0.011980627 0.10048797 0.13192922 0.018839255 0.063303806 0.19707726 0.10248318 -0.18752334 -0.14316656 0.10119535 -0.10558608 0.5780191 -0.19975749 -0.014564537 -0.22843881 -0.24546145 0.007217364 -0.012917965 -0.118697435
442 0.20467317 -0.021003151 0.03103771 0.02151825 0.03672343 0.16201882 -0.36463112 0.17648014 0.17525785 0.0420101 -0.016974356 0.20825467 -0.1794718 0.029932389 -0.23822671 0.09125137 0.09778074 -0.13394925 -0.08590705 -0.09222022 -0.07535063 -0.033287793 0.13559638 0.026162347 -0.22450942 -0.09781279 0.013786068 -0.06451783 -0.09551581 0.32499185 0.019789644 0.030334692 -0.027025895 0.027275344 -0.20643462 -0.12148079 -0.031550385 -0.16145146 -0.12216841 0.102229975 -0.2226321 0.08897462 -0.007027767 0.186244 0.218194 -0.21021195 0.22047637 0.07019415 0.094603084 0.10221094 -0.12975627 -0.010626366 -0.16265745 0.20576523 -0.10650363 -0.20751238 -0.18367073 0.1625732 0.10685099 0.21940759 0.29686996 0.082653515 0.23044114 0.11126368 -0.07398072 0.10521923 0.046717405 0.26744798 -0.068272114 -0.12211622 -0.09493617 0.20307711 0.079033494 0.12347063 -0.37294626 0.01338108 0.2624598 -0.015921017 0.0952342 -0.11581028 0.18763496 -0.0045743994 0.09723893 0.1281289 0.034038205 0.06301181 0.18764403 0.09233404 -0.17000847 -0.15307233 0.10432505 -0.105678104 0.58925724 -0.19594042 -0.018088162 -0.21614479 -0.2421686 0.009217614 -0.023013458 -0.12247116
104 0.2164235 -0.02413218 0.026254218 0.0093199285 0.03029454 0.17466268 -0.35546815 0.17093353 0.17200764 0.050710235 -0.026174342 0.20905288 -0.1714952 0.023452781 -0.2253179 0.092686884 0.09796789 -0.13618885 -0.07578973 -0.10320689 -0.07315689 -0.034562517 0.14374982 0.014111676 -0.22701012 -0.09730364 0.011193515 -0.059329845 -0.082719475 0.33193493 0.026771879 0.04347737 -0.03643905 0.026152147 -0.19739707 -0.12263035 -0.020380285 -0.16194086 -0.13159776 0.09035052 -0.2084681 0.093641646 -0.022910811 0.1986387 0.22017364 -0.19467485 0.21898586 0.07864212 0.11046383 0.102452435 -0.13392381 -0.012283184 -0.16625972 0.21129462 -0.109772675 -0.2095078 -0.16728841 0.16207516 0.11359516 0.22354753 0.300194 0.09086573 0.23793104 0.11075449 -0.07479164 0.10321753 0.042553455 0.26505032 -0.08183989 -0.12718664 -0.099869475 0.19236033 0.06816357 0.120349295 -0.3839384 0.011941774 0.26508597 -0.01044109 0.082576744 -0.11820096 0.18909441 -0.009230617 0.089944884 0.11238342 0.016445361 0.063730836 0.19818965 0.09997108 -0.16727361 -0.14846043 0.09089715 -0.09731207 0.58798486 -0.20392974 -0.013599845 -0.22912806 -0.23988152 0.00028220753 -0.013938451 -0.10791447
471 0.2203454 -0.03239378 0.037084118 0.023836702 0.042105693 0.16960222 -0.35123417 0.17816944 0.17942052 0.0520511 -0.030620076 0.2107621 -0.16988654 0.0135395015 -0.22143462 0.09918889 0.09401763 -0.13137622 -0.08840255 -0.098168865 -0.06372787 -0.03247842 0.14395426 0.018737076 -0.22284569 -0.0935177 0.016671412 -0.051578872 -0.08786366 0.32105982 0.0204077 0.040047392 -0.02987809 0.03626161 -0.2006747 -0.12346854 -0.023887297 -0.17575604 -0.12872143 0.09447729 -0.21468098 0.09369139 -0.009495219 0.18696333 0.22507064 -0.20806386 0.22387083 0.08132532 0.10918145 0.09580566 -0.13081695 -0.00194991 -0.16615637 0.2089613 -0.10364436 -0.22136034 -0.16500181 0.1501507 0.10559257 0.21430418 0.29468003 0.07652463 0.23898394 0.11315179 -0.08000341 0.10963986 0.036010865 0.26701856 -0.07326559 -0.13003485 -0.09634668 0.19298498 0.07027201 0.11903544 -0.3734493 0.009182389 0.2601197 -0.0055753323 0.09543278 -0.11712866 0.19456084 -0.021336492 0.092740215 0.11551533 0.033419464 0.05730427 0.1970596 0.09070479 -0.1826386 -0.1567781 0.09349348 -0.10686442 0.5895089 -0.19296005 0.001470093 -0.21705455 -0.2543939 -0.0002634201 -0.016600575 -0.113322884
276 0.2067223 -0.016563464 0.02766478 0.012914778 0.031542424 0.17759986 -0.36030382 0.17984298 0.1826419 0.042386927 -0.023024686 0.19522355 -0.1822045 0.021619389 -0.23226044 0.09281421 0.10913522 -0.14750704 -0.083275184 -0.0914854 -0.07287633 -0.030859435 0.12783721 0.02490143 -0.21797967 -0.0807866 0.016175495 -0.06625624 -0.08658199 0.32308763 0.030233063 0.032320306 -0.04554301 0.025466977 -0.21018147 -0.12992267 -0.027712751 -0.1684609 -0.1303454 0.10670626 -0.2068321 0.07695154 -0.022372749 0.18632056 0.22551645 -0.19169366 0.22190827 0.06865271 0.09981687 0.09034821 -0.1401982 -0.00498486 -0.17263514 0.21373323 -0.114078 -0.2156551 -0.1685497 0.15793377 0.102342755 0.21214296 0.3030335 0.07965448 0.22389822 0.11417796 -0.07553963 0.09398255 0.044709064 0.26086408 -0.071871474 -0.12389815 -0.108318634 0.1907565 0.074784 0.11885177 -0.38796362 0.012010072 0.26802072 -0.014172405 0.083628275 -0.10525917 0.1953132 -0.01988452 0.088320255 0.12130914 0.028990302 0.06905201 0.20259309 0.09550619 -0.18411003 -0.14990437 0.10107994 -0.08851933 0.5800603 -0.19993569 -0.005484657 -0.22308132 -0.24709773 0.015105404 -0.02502967 -0.11595385
129 0.21643884 -0.01685685 0.040595412 0.022845149 0.0460234 0.1627823 -0.35852045 0.16559516 0.18659396 0.052326575 -0.031174388 0.20808704 -0.18647477 0.030088246 -0.23230015 0.10390431 0.09681344 -0.13729343 -0.07769017 -0.10190559 -0.078795224 -0.035758555 0.13803709 0.008735147 -0.230978 -0.08155012 0.0086072115 -0.048779685 -0.08763854 0.32010052 0.013163703 0.049162745 -0.040043317 0.0350998 -0.20044287 -0.12773427 -0.029703094 -0.17888558 -0.13265346 0.10481414 -0.21254127 0.09182296 -0.021824889 0.18880253 0.21273004 -0.2025728 0.21471739 0.08033415 0.11511741 0.095764086 -0.13388672 -0.008129594 -0.16739225 0.21160367 -0.10126282 -0.21271002 -0.17705463 0.1608077 0.09853139 0.22624032 0.30238608 0.09520362 0.22569712 0.11665014 -0.08003618 0.11094728 0.039998207 0.26082256 -0.0663479 -0.12105704 -0.094421804 0.19477972 0.06908848 0.13129514 -0.3734392 0.019854205 0.2672873 -0.013806256 0.09266445 -0.10967423 0.18801822 -0.01931519 0.086575106 0.12227604 0.024627056 0.07474818 0.19472481 0.09653068 -0.18761571 -0.14993992 0.08677535 -0.089336365 0.58395016 -0.18818465 -0.0071263947 -0.220225 -0.2434896 -0.004381196 -0.009478246 -0.1216775
481 0.21718673 -0.032126456 0.035912614 0.009351338 0.028025102 0.18413736 -0.35271636 0.17692192 0.18902706 0.04970998 -0.037850037 0.19724248 -0.17812441 0.018572325 -0.23284906 0.095985904 0.10870208 -0.14254571 -0.082658276 -0.096733704 -0.0817123 -0.021107191 0.14741129 0.013036638 -0.23008847 -0.09433687 0.004847226 -0.05188332 -0.09722261 0.33468473 0.027422555 0.045948766 -0.027827555 0.029617354 -0.21047518 -0.12207299 -0.02814001 -0.16221143 -0.12690894 0.09268056 -0.20900907 0.08944806 -0.014548951 0.20602557 0.22585112 -0.20665744 0.21428809 0.06985237 0.110561855 0.08526422 -0.13630174 0.0037651446 -0.16017129 0.19477326 -0.09992173 -0.20644255 -0.17518367 0.15243277 0.109255865 0.2260643 0.29610336 0.07655556 0.22435047 0.11105457 -0.07757281 0.10111438 0.04322949 0.26301253 -0.065820314 -0.12551877 -0.11022164 0.20212114 0.062136 0.12971629 -0.36990246 0.01891096 0.2616213 -0.013497666 0.096216515 -0.111928985 0.18363456 -0.01440647 0.08389087 0.13023506 0.034529753 0.06251505 0.19224034 0.09868062 -0.17516553 -0.14128396 0.10023116 -0.0937052 0.58643556 -0.20353094 -0.015140798 -0.21617566 -0.25147605 -0.00328438 -0.018338442 -0.107225895
5 0.21866743 -0.033271495 0.031239182 0.012992826 0.038035523 0.17148766 -0.36295497 0.16986541 0.17872082 0.059086822 -0.020704808 0.20495057 -0.16968107 0.014814021 -0.2378396 0.090103865 0.10972863 -0.13355885 -0.09540745 -0.105160765 -0.06381444 -0.035115585 0.12875497 0.023489634 -0.2242747 -0.08127888 0.0076341066 -0.056166716 -0.09561815 0.326693 0.011198288 0.033133898 -0.039730012 0.018807009 -0.19585317 -0.12897122 -0.028240394 -0.18048123 -0.1291953 0.10068983 -0.21790603 0.093312085 -0.012390662 0.1854818 0.22137108 -0.19534828 0.2067833 0.08353241 0.10662733 0.085734345 -0.12953919 0.0019910599 -0.17131038 0.20436199 -0.10461276 -0.20477204 -0.1837163 0.16266745 0.11385225 0.22728483 0.29135722 0.077956304 0.24190393 0.11515803 -0.08293866 0.09278146 0.04315152 0.26942477 -0.0715454 -0.12899378 -0.09968472 0.19249682 0.06235442 0.12759043 -0.37152335 0.01045562 0.26409197 -0.007639697 0.09625692 -0.11002238 0.18695943 -0.0012598373 0.09607258 0.11769831 0.017546715 0.06655797 0.19224654 0.10252239 -0.17027009 -0.152206 0.10095091 -0.09067466 0.58962864 -0.20417581 -0.0022502148 -0.22754923 -0.2393878 0.017245172 -0.02021919 -0.10851597
247 0.2157031 -0.01818214 0.022903692 0.019927459 0.046957936 0.1744367 -0.35376984 0.16810079 0.17788994 0.045376156 -0.016608559 0.20810522 -0.17588805 0.023334697 -0.22270073 0.10363485 0.10447969 -0.1343636 -0.08063251 -0.1010429 -0.069458984 -0.02179663 0.1363928 0.02891299 -0.23648094 -0.08374661 0.008893419 -0.055587903 -0.100058846 0.33114547 0.017251728 0.036529344 -0.028769841 0.019234994 -0.19647838 -0.12374755 -0.025744503 -0.16110851 -0.12379709 0.10235892 -0.22230354 0.089204915 -0.016629424 0.20435447 0.21540919 -0.20538749 0.20832047 0.08015283 0.10028735 0.087679654 -0.13582309 -0.0020197236 -0.1739019 0.21677649 -0.10948986 -0.22041549 -0.16528827 0.15014753 0.103419624 0.23125765 0.29420048 0.088810876 0.23969403 0.1073431 -0.07128781 0.112463266 0.035009127 0.27325258 -0.07275561 -0.1111563 -0.10373792 0.19232571 0.0808978 0.13085985 -0.39198077 0.015881673 0.25411347 -0.0062077926 0.09376141 -0.107527725 0.19103378 -0.0077182576 0.0919421 0.11472074 0.01839607 0.06971367 0.19753721 0.08606715 -0.18391378 -0.16059797 0.089133225 -0.10097069 0.578982 -0.18957144 -0.014939954 -0.23176669 -0.23883551 0.0038924052 -0.027015595 -0.11783573
70 0.20564395 -0.01760056 0.029016918 0.0058388384 0.046453707 0.16224627 -0.35774377 0.17378226 0.18287413 0.05656574 -0.030496046 0.20544186 -0.17731616 0.01087232 -0.23867057 0.098917305 0.09504278 -0.1337635 -0.086417116 -0.10671476 -0.07093055 -0.030468117 0.14013895 0.007928099 -0.23249051 -0.08656354 0.017622314 -0.053045105 -0.09473331 0.3259391 0.014100926 0.035027027 -0.042659108 0.02821034 -0.2025997 -0.12838276 -0.021103835 -0.16567808 -0.12719849 0.10022275 -0.21567334 0.09118416 -0.008770393 0.19914144 0.2231762 -0.19889301 0.20962736 0.08487379 0.09445617 0.09767888 -0.1274716 -0.008254612 -0.17248145 0.19665119 -0.11709647 -0.21665667 -0.18268503 0.14939454 0.11254362 0.23050776 0.29840842 0.08758623 0.22684704 0.11626981 -0.06681917 0.099879146 0.03774226 0.2757367 -0.08298746 -0.12378877 -0.11008792 0.19762544 0.073733844 0.11986349 -0.37795445 0.014248202 0.2580799 0.0015187706 0.08570378 -0.11409394 0.17980947 -0.012834301 0.09933807 0.11077121 0.019874766 0.0563628 0.19226173 0.09033326 -0.18318689 -0.14206573 0.09532586 -0.09399818 0.5891093 -0.18712704 -0.014109409 -0.22455281 -0.24279968 0.012436791 -0.014775633 -0.106651284
130 0.21412039 -0.03299376 0.03123926 0.0065317457 0.030700922 0.16672748 -0.34764084 0.16492136 0.18990026 0.041968346 -0.025395837 0.20831135 -0.17202148 0.0126590375 -0.2290807 0.09471696 0.08907904 -0.13271059 -0.09187857 -0.09921544 -0.074245594 -0.030777998 0.14662649 0.027495142 -0.22655666 -0.080870636 0.021567404 -0.060462315 -0.08384515 0.33744022 0.028714323 0.039573323 -0.029354878 0.016983092 -0.19488434 -0.13661964 -0.036416646 -0.1629691 -0.12259013 0.09437307 -0.20511585 0.09452579 -0.018307172 0.19890173 0.2097265 -0.20737343 0.21951243 0.06871156 0.10866811 0.10074799 -0.13429563 -0.006325832 -0.16926976 0.21070254 -0.11809167 -0.2105511 -0.1846292 0.15534152 0.11049643 0.23095655 0.3040653 0.094739355 0.2238905 0.10513529 -0.07457297 0.11152875 0.051097497 0.25756097 -0.06325567 -0.12921312 -0.102028005 0.20450255 0.07213644 0.12646388 -0.3769687 0.005350933 0.26295137 -0.0005998073 0.09262692 -0.1008939 0.19405216 -0.012961088 0.07982622 0.11515049 0.017249981 0.06365144 0.19400533 0.09372162 -0.17389856 -0.14586022 0.103568055 -0.094839565 0.5802545 -0.2018676 -0.01284635 -0.22800034 -0.24945264 -0.0024731902 -0.0076436787 -0.121064246
394 0.20653515 -0.02569507 0.026073387 0.009731396 0.0316124 0.17611676 -0.3571577 0.1673646 0.18349887 0.052066457 -0.02346663 0.21148153 -0.1645634 0.02331323 -0.22060633 0.10494771 0.1075901 -0.14796038 -0.09045057 -0.10389699 -0.061276715 -0.016611349 0.1357984 0.021337224 -0.23034424 -0.078451686 0.005807265 -0.047925927 -0.090245634 0.32974246 0.013985004 0.031955592 -0.037068073 0.026969375 -0.20491664 -0.1322985 -0.032577753 -0.1710469 -0.117758885 0.10977996 -0.21622616 0.094096035 -0.021505259 0.20324257 0.22056684 -0.20500784 0.20950475 0.069441035 0.106021695 0.09900339 -0.13587223 -0.007002561 -0.16874124 0.20580769 -0.11839042 -0.20777903 -0.17384848 0.15093873 0.09854826 0.21403709 0.30029094 0.08769208 0.23403776 0.12142388 -0.06676563 0.11002644 0.04969476 0.27270028 -0.08256812 -0.120192245 -0.09358304 0.19730529 0.07307545 0.11764031 -0.38467473 0.019324357 0.25707114 -0.0077969697 0.09280686 -0.11988566 0.19125935 -0.010215377 0.09603416 0.11743741 0.025869465 0.069784835 0.20052622 0.103898995 -0.18523449 -0.14134835 0.09088184 -0.088839345 0.58089125 -0.19793856 -0.016066074 -0.22080176 -0.23671825 0.004271802 -0.012089784 -0.115892224
99 0.21104984 -0.027815063 0.03449325 0.022595285 0.031745113 0.17588814 -0.35237324 0.17080219 0.17710337 0.04527362 -0.02410116 0.20398521 -0.18058702 0.024661714 -0.23042412 0.10953199 0.09518848 -0.14786454 -0.07847663 -0.10227556 -0.07250858 -0.029521381 0.13431863 0.018785672 -0.22012576 -0.08642284 0.017319743 -0.047879722 -0.09455453 0.31940243 0.018622374 0.037906572 -0.031074304 0.023813978 -0.19650128 -0.13241845 -0.028815221 -0.16730879 -0.117181584 0.10222615 -0.2042048 0.09594602 -0.0034333332 0.20467347 0.21143173 -0.20239769 0.21321914 0.07793025 0.107181065 0.10229904 -0.13842523 0.0014567501 -0.17272028 0.2114176 -0.115687884 -0.22368431 -0.1745706 0.15162055 0.11610739 0.23125842 0.29386207 0.07457898 0.23485593 0.10577371 -0.084826596 0.09632378 0.035183202 0.26295674 -0.07844396 -0.11408168 -0.10316733 0.20264111 0.067143016 0.11821819 -0.37014753 0.018024331 0.26855934 -0.013372129 0.1000107 -0.11661786 0.18142919 -0.002094332 0.09351382 0.114715554 0.018915907 0.0709158 0.20567875 0.10224886 -0.1842086 -0.14719005 0.09342057 -0.09027402 0.58645064 -0.20234166 -0.017173616 -0.2212976 -0.25182763 0.0036962857 -0.008308749 -0.10571006
398 0.209161 -0.032603815 0.029524596 0.022026364 0.038055915 0.17905883 -0.36725122 0.1764705 0.17956328 0.04373897 -0.03614632 0.19448632 -0.17657441 0.02160332 -0.22049068 0.108208984 0.104512036 -0.1288067 -0.095932856 -0.108062394 -0.07264353 -0.030216541 0.13500425 0.008135877 -0.22547099 -0.09554145 0.01576914 -0.057804078 -0.10084352 0.31978875 0.027817897 0.039318603 -0.031922538 0.034795508 -0.20130327 -0.12489627 -0.031394493 -0.17387204 -0.116573416 0.09766529 -0.21543789 0.07805678 -0.015259784 0.20342338 0.21948381 -0.19329537 0.22446188 0.06910778 0.10675841 0.09224325 -0.13731574 -0.0088881655 -0.17691031 0.20890172 -0.11144802 -0.22175895 -0.16607814 0.16193433 0.10210305 0.22657742 0.30540463 0.07791627 0.22868574 0.1105795 -0.08150738 0.101437755 0.03514263 0.26036814 -0.07536769 -0.115155995 -0.09826569 0.19541757 0.065040626 0.12647225 -0.37898692 0.0024610425 0.25883508 -0.0017953436 0.09948046 -0.1124045 0.18490945 -0.018323723 0.08855199 0.13275139 0.017957535 0.059541844 0.19792688 0.09320833 -0.1735412 -0.14196356 0.099877544 -0.088570446 0.5815395 -0.20196715 -0.013374281 -0.21292672 -0.25391272 0.001616396 -0.01520949 -0.120996915
326 0.21304508 -0.019330407 0.040551834 0.010995988 0.030782435 0.17551711 -0.34728885 0.16826406 0.16677178 0.046002325 -0.020472854 0.20882447 -0.16778322 0.023661891 -0.23162131 0.09135997 0.10165083 -0.14557248 -0.07803424 -0.09770913 -0.07615334 -0.018789547 0.13450429 0.0145612005 -0.22567028 -0.0967357 0.007849469 -0.06430745 -0.09810253 0.3241305 0.015092408 0.042001635 -0.039194793 0.02246205 -0.1981587 -0.13986115 -0.03129361 -0.17872109 -0.11252 0.106602184 -0.2236302 0.08423697 -0.007114973 0.19387698 0.21830231 -0.2062677 0.21346761 0.07285366 0.093105726 0.08396162 -0.13919897 0.0032883007 -0.16634168 0.20940983 -0.117017664 -0.2131175 -0.17869654 0.14624494 0.10841096 0.22132269 0.30500743 0.08940587 0.23483723 0.10330847 -0.08024278 0.11037659 0.047147896 0.26255888 -0.07119692 -0.10943636 -0.09304825 0.20666054 0.078761995 0.12824942 -0.36771935 0.0073533524 0.26625612 -0.007043895 0.08623936 -0.1125153 0.19686273 -0.01255233 0.08874556 0.12189676 0.037679005 0.060103036 0.20487118 0.08765528 -0.18494458 -0.14772348 0.08913207 -0.10069355 0.5865369 -0.19189267 -0.012023905 -0.23048444 -0.2536632 0.010313305 -0.022470241 -0.10545632
466 0.20606196 -0.024314603 0.028470198 0.022159891 0.04636991 0.17682026 -0.34845692 0.16324149 0.17936349 0.05251391 -0.02757933 0.19734232 -0.17861664 0.012094348 -0.23061147 0.10668375 0.098229796 -0.13820547 -0.07738278 -0.106216535 -0.07229099 -0.032910407 0.13465486 0.009482625 -0.23107174 -0.083172806 0.008013212 -0.056947667 -0.08573209 0.33552825 0.025607964 0.04171936 -0.031019643 0.024330007 -0.19337602 -0.13110118 -0.024459293 -0.18122184 -0.11947987 0.08904379 -0.22174208 0.08731125 -0.013116105 0.20106784 0.224656 -0.2005353 0.21864 0.069166094 0.09761112 0.088512994 -0.14054935 -0.013815245 -0.17326191 0.20020412 -0.10608706 -0.21552005 -0.17460954 0.15608633 0.10522109 0.2297578 0.2950231 0.0882142 0.23181178 0.11353435 -0.08419099 0.103957675 0.034875404 0.26968265 -0.07456225 -0.11288955 -0.11100627 0.20355915 0.07858282 0.11941267 -0.3873903 0.010733029 0.25076956 -0.00473352 0.098710634 -0.11374578 0.17685387 -0.0022942137 0.09631181 0.12525031 0.028331317 0.061796907 0.2042965 0.095115684 -0.16897343 -0.15992102 0.08342141 -0.10260154 0.58233607 -0.19244799 -0.0044921855 -0.22283621 -0.23881158 0.0044269487 -0.023885408 -0.11000723
411 0.21495128 -0.02637383 0.022067914 0.010400256 0.044455558 0.1687254 -0.36077183 0.162264 0.1780856 0.04565738 -0.01609801 0.20658383 -0.18189214 0.013519296 -0.23895481 0.0928102 0.101083286 -0.1371839 -0.09400823 -0.09739822 -0.071945675 -0.024743183 0.13107307 0.020968193 -0.22223042 -0.09637392 0.010571517 -0.059564862 -0.089521155 0.3249952 0.029845066 0.030963209 -0.03646664 0.032213014 -0.20540334 -0.12816986 -0.029355533 -0.17560932 -0.1312356 0.093356475 -0.20817123 0.09352596 -0.014394432 0.1984268 0.22642648 -0.19840811 0.21255156 0.078669064 0.112777285 0.08494719 -0.13544695 -0.014757384 -0.15718728 0.21010418 -0.10729836 -0.21241426 -0.17801037 0.15748952 0.110134594 0.2243158 0.2966108 0.08803329 0.23850985 0.120674 -0.078274556 0.091870524 0.039147954 0.26051244 -0.08416138 -0.11321079 -0.100506455 0.19747041 0.07122498 0.12828021 -0.3700164 0.0049639056 0.24950165 -0.005106131 0.097768635 -0.101097174 0.1915841 -0.011794609 0.09233748 0.11776748 0.018820519 0.059776045 0.1901391 0.1016358 -0.1823123 -0.14850877 0.102467276 -0.09936982 0.57955253 -0.20710695 -0.014458381 -0.23009512 -0.2568172 0.0015168998 -0.01955882 -0.11640435
237 0.20661293 -0.028360954 0.02463444 0.017098606 0.043555997 0.18064395 -0.3594246 0.16916893 0.17879656 0.042582564 -0.03347631 0.1930741 -0.16602942 0.02163002 -0.23166107 0.094454005 0.09741806 -0.14584546 -0.085006386 -0.094784304 -0.07000565 -0.012914968 0.13612951 0.020545224 -0.22290447 -0.08942784 0.0078082024 -0.05756978 -0.08637166 0.33656853 0.014954817 0.046142757 -0.031220425 0.01948617 -0.20520669 -0.12090543 -0.018455962 -0.17945005 -0.1328095 0.10749019 -0.21230048 0.08072562 -0.021793311 0.20292792 0.21178271 -0.2020029 0.21063727 0.07731552 0.096441634 0.084043555 -0.124968104 -0.003910476 -0.17340474 0.20219997 -0.105272256 -0.21432869 -0.16794822 0.15692003 0.10192923 0.21350673 0.2877656 0.09511678 0.23330072 0.12417323 -0.083221905 0.11139076 0.05026408 0.27300066 -0.07595164 -0.13096242 -0.10271361 0.19822504 0.07379883 0.13305853 -0.38449317 0.0046840925 0.2663183 -0.0088688955 0.084485814 -0.10055994 0.19133078 -0.014311746 0.08922771 0.12502879 0.034962125 0.069938496 0.20019718 0.08808897 -0.18064012 -0.15263693 0.09108152 -0.10188269 0.58872217 -0.19759147 -0.013493685 -0.21775857 -0.23930265 -0.0008069484 -0.014050065 -0.111422196
158 0.204564 -0.035479028 0.03375828 0.019797528 0.04345204 0.17386237 -0.35552147 0.17895113 0.17172077 0.046185795 -0.023517545 0.19509406 -0.1851506 0.024774946 -0.23575662 0.10034342 0.10528298 -0.14578322 -0.09515239 -0.098361045 -0.06525343 -0.015000045 0.12811889 0.026330022 -0.22676618 -0.094600864 0.02329447 -0.048724286 -0.082715526 0.322232 0.01824423 0.034964506 -0.032446377 0.018217005 -0.2121199 -0.12100041 -0.023122938 -0.18005767 -0.117637485 0.09284716 -0.20412944 0.094592735 -0.018145123 0.19094558 0.21186109 -0.20804475 0.20974304 0.07954983 0.10857088 0.10095314 -0.1399453 -0.003296982 -0.17011838 0.19284792 -0.10090032 -0.21895756 -0.18063486 0.15704302 0.109062776 0.22230554 0.30364528 0.09380796 0.23823588 0.108220726 -0.07513401 0.10451367 0.036500502 0.26799607 -0.077474065 -0.12099657 -0.09695476 0.19006863 0.06735745 0.12854567 -0.37937197 0.020262072 0.26350802 -0.005806531 0.09073702 -0.109453134 0.18854132 -0.0017660131 0.09629443 0.11479511 0.03346366 0.061079267 0.19958901 0.093795754 -0.17750375 -0.14990406 0.087540045 -0.09242408 0.59100026 -0.20493849 -0.006840423 -0.22674988 -0.24945177 0.013329881 -0.010543825 -0.11397013
83 0.21724276 -0.021090072 0.026195223 0.008374119 0.037524465 0.1650274 -0.3500193 0.17703897 0.17806914 0.05714472 -0.031682547 0.19507551 -0.18484822 0.014823464 -0.22787546 0.102210365 0.092936285 -0.13086303 -0.07731824 -0.10060403 -0.06283811 -0.029089017 0.14564747 0.023619002 -0.23086643 -0.08602582 0.021533076 -0.056024708 -0.08561747 0.32267064 0.02283274 0.039687857 -0.044683732 0.019495217 -0.19852684 -0.1331457 -0.017428711 -0.16897473 -0.11937524 0.09354275 -0.2196548 0.07700602 -0.013701295 0.19098893 0.21253014 -0.20805304 0.20627296 0.08277684 0.110401176 0.09865097 -0.13999099 -0.0061024968 -0.1761943 0.19480115 -0.10551384 -0.21970885 -0.17284535 0.1645516 0.11269899 0.21774365 0.29709548 0.093055636 0.23889522 0.11054155 -0.066542976 0.112736076 0.0399631 0.27428317 -0.08570154 -0.11478124 -0.09172392 0.19719747 0.06409389 0.1364687 -0.38985103 0.016839186 0.2657077 -0.0016483222 0.0971156 -0.11361015 0.19683096 -0.013631507 0.07975887 0.12035019 0.030111698 0.06187826 0.1889812 0.102003366 -0.17981693 -0.15051001 0.10169983 -0.10005789 0.57998914 -0.19854333 -0.010285734 -0.2265246 -0.24087279 0.015317428 -0.017307153 -0.12397325
10 0.20855439 -0.025563387 0.027197083 0.009131091 0.031584036 0.17848445 -0.36178318 0.16618814 0.18829475 0.05556433 -0.031115152 0.21157038 -0.17179 0.029741645 -0.23152325 0.10042925 0.10569661 -0.14658159 -0.07809561 -0.11081905 -0.0797098 -0.017737202 0.14137948 0.025748014 -0.23230284 -0.07890272 0.011154954 -0.0520295 -0.09333504 0.33339855 0.028347839 0.038072143 -0.026819399 0.033311147 -0.20080675 -0.12473169 -0.022485498 -0.16228643 -0.12689124 0.10152513 -0.21845986 0.07831552 -0.022170473 0.2043106 0.21274145 -0.20773345 0.22265527 0.08358031 0.099183485 0.09184633 -0.14036621 -0.013753381 -0.1788089 0.20634873 -0.1150351 -0.20963 -0.1638194 0.14621979 0.10355921 0.21988848 0.29753658 0.079396755 0.22572574 0.11664622 -0.06566511 0.09899073 0.037573952 0.26864576 -0.078452826 -0.11081807 -0.099616826 0.1889822 0.07576761 0.122455135 -0.37775314 0.011083885 0.26731312 -0.004489326 0.09401603 -0.103360206 0.19487803 -0.014211842 0.08044073 0.12186895 0.027353073 0.06412909 0.1864143 0.0945989 -0.18411137 -0.14940582 0.10382132 -0.09850504 0.58541834 -0.19525425 -0.012041221 -0.21502602 -0.24444488 0.0016227037 -0.020516021 -0.105833106
11 0.21679334 -0.025640551 0.039317332 0.026779901 0.037937343 0.16259417 -0.36281195 0.1786536 0.18598881 0.056684695 -0.030241672 0.19517565 -0.18281938 0.01724745 -0.23945633 0.100275286 0.096095026 -0.12917206 -0.07876385 -0.0920219 -0.07250252 -0.026430406 0.14446856 0.027956074 -0.22134443 -0.08560597 0.015754458 -0.055469815 -0.09556163 0.31980234 0.018486355 0.039600085 -0.04372968 0.02990047 -0.21108346 -0.13566849 -0.028511424 -0.1653729 -0.12916182 0.09658853 -0.2209798 0.075027294 -0.023317419 0.1937719 0.22282727 -0.19571434 0.2236632 0.071562335 0.10406752 0.084821716 -0.12619486 -0.005652462 -0.1597748 0.2082861 -0.112544276 -0.20744464 -0.1790642 0.1625478 0.09872924 0.22589143 0.29939356 0.09409916 0.22671112 0.11852254 -0.06975632 0.10046765 0.043844346 0.27404773 -0.079585426 -0.117306724 -0.100710735 0.19201629 0.064743936 0.13417242 -0.37962094 0.014534881 0.2595803 -0.017413741 0.08424073 -0.120261505 0.18023886 -0.012773094 0.09593317 0.11579363 0.032818094 0.05856647 0.18861152 0.0934198 -0.17737365 -0.15646324 0.10411203 -0.10576871 0.58677137 -0.2013251 -0.020038597 -0.21455073 -0.23791446 0.0102805095 -0.013631141 -0.113132246
124 0.21283254 -0.034941707 0.02516999 0.0062605096 0.03442075 0.1630053 -0.36351854 0.17754735 0.17574169 0.04400454 -0.017967898 0.20890157 -0.18494584 0.012313468 -0.24019751 0.10211488 0.09624979 -0.13889213 -0.08044064 -0.102178834 -0.06737479 -0.018615738 0.13546696 0.010734509 -0.22234698 -0.079167254 0.021524133 -0.050292507 -0.080352254 0.32729435 0.02353603 0.033717822 -0.03631311 0.02596823 -0.20122536 -0.12796311 -0.026509129 -0.17090473 -0.11929473 0.1034332 -0.21083888 0.08178642 -0.021722578 0.19898641 0.22192347 -0.193366 0.21698585 0.08282324 0.115157984 0.10458894 -0.1378752 0.004046189 -0.17669158 0.20665114 -0.11799471 -0.20894483 -0.17611496 0.1473947 0.11487725 0.21829997 0.3063722 0.087759525 0.24107516 0.10502361 -0.08446934 0.112926826 0.038090006 0.27241024 -0.083748735 -0.11864185 -0.11235924 0.18999328 0.06136043 0.12113787 -0.3840934 0.014559564 0.25384843 -0.009451647 0.09269224 -0.11998515 0.17786494 -0.0005359181 0.08193239 0.12185754 0.035084747 0.054712776 0.19096312 0.09092966 -0.17016055 -0.15453422 0.086440146 -0.097121075 0.5843334 -0.20482022 -0.005011498 -0.21820386 -0.23839815 0.004536617 -0.025403755 -0.10522549
84 0.2089897 -0.017631402 0.023982741 0.017481485 0.030203389 0.17756473 -0.36226043 0.16427357 0.17722416 0.063203506 -0.03239057 0.19796577 -0.18479249 0.013215214 -0.2314968 0.10231571 0.10319236 -0.14127997 -0.092283934 -0.10777657 -0.07836967 -0.02252358 0.14221981 0.025590356 -0.2170131 -0.092727445 0.011604879 -0.051090196 -0.099844635 0.32373038 0.018707303 0.042630613 -0.03916292 0.02059343 -0.21214703 -0.1212113 -0.023825092 -0.16788678 -0.12959719 0.10695328 -0.2072436 0.093761995 -0.006870034 0.20370148 0.22081822 -0.1960356 0.20834704 0.08148631 0.096751414 0.092566386 -0.12965685 -0.0025825028 -0.16491902 0.19568239 -0.118558295 -0.21294303 -0.17537789 0.15539497 0.10109753 0.23271662 0.2993065 0.07584735 0.23051254 0.11038226 -0.07660725 0.10728224 0.043615967 0.27547693 -0.07701376 -0.11648691 -0.10863327 0.19438985 0.071859196 0.13671425 -0.38093996 0.009105422 0.25771296 -0.0089134 0.0877743 -0.107123464 0.18972045 -0.0026922566 0.0869661 0.11986879 0.019887634 0.06760725 0.1871078 0.09485831 -0.174411 -0.15040348 0.09835477 -0.09395916 0.5944081 -0.19259435 -0.005855829 -0.22302242 -0.23684874 0.014613189 -0.013223156 -0.111250214
212 0.21027635 -0.020612614 0.025580313 0.018504778 0.03239062 0.1739882 -0.36060926 0.17481466 0.17167659 0.05352698 -0.031285074 0.20693898 -0.16941224 0.023708506 -0.23599268 0.10114422 0.10475778 -0.14042109 -0.07764594 -0.1017848 -0.06248688 -0.020916678 0.13880423 0.0072159367 -0.23400854 -0.08206868 0.0045998134 -0.062315326 -0.08342928 0.31889713 0.018152056 0.03773712 -0.02639316 0.02799981 -0.2063754 -0.13266148 -0.017831447 -0.18058102 -0.11924898 0.090317525 -0.20479383 0.08501768 -0.009116624 0.19653188 0.2258699 -0.19578716 0.22061256 0.08296628 0.10719733 0.10173714 -0.13098273 -0.016881442 -0.16274735 0.21119109 -0.10279832 -0.21495028 -0.17875238 0.15098368 0.109017655 0.22615285 0.30663943 0.084340625 0.23647827 0.10886892 -0.07001306 0.10939354 0.047603436 0.26472712 -0.085123755 -0.11330554 -0.09770805 0.1980462 0.06947734 0.13461588 -0.37133002 0.014349073 0.26713568 -0.015301455 0.083647385 -0.11863137 0.18284477 -0.009530604 0.08939289 0.11228669 0.022166278 0.06257038 0.19345683 0.08969454 -0.16598994 -0.15449761 0.09417252 -0.097977705 0.5788184 -0.2035726 -0.018783703 -0.23183434 -0.2542061 0.011255178 -0.015391922 -0.11759421
352 0.20722751 -0.023903893 0.03677779 0.025173355 0.044586375 0.16645578 -0.36262825 0.16664813 0.18865065 0.047454227 -0.022699533 0.21035272 -0.18235607 0.014530584 -0.22100691 0.10555728 0.10975197 -0.13009457 -0.082069136 -0.09870063 -0.078125596 -0.03176511 0.13818146 0.020076955 -0.21796577 -0.085353084 0.0058568 -0.048504822 -0.09454392 0.32745728 0.021835582 0.050818563 -0.027821466 0.023915447 -0.19440925 -0.13141204 -0.025781376 -0.17071025 -0.12224533 0.10898302 -0.22335015 0.08110622 -0.018595066 0.18596765 0.21592824 -0.20685369 0.21625206 0.08083622 0.099054284 0.08958108 -0.12522854 -0.0015215776 -0.16255967 0.1984411 -0.11848668 -0.2161437 -0.16941154 0.14742216 0.10201155 0.23069127 0.30669606 0.08652363 0.22777043 0.12068044 -0.081691675 0.1035931 0.047539376 0.2676834 -0.06593709 -0.112170435 -0.10923559 0.1954831 0.078222476 0.1260673 -0.37878686 0.0076008723 0.25794092 -0.01540271 0.092236675 -0.10653205 0.1809462 -0.01963021 0.094671845 0.12037815 0.016289711 0.05387058 0.2022889 0.09915178 -0.18508199 -0.15853363 0.10416957 -0.108484596 0.58729637 -0.19299059 -0.0024576331 -0.2146747 -0.24253826 0.013789456 -0.009858583 -0.11466032
8 0.21770315 -0.0156004215 0.023809459 0.022201685 0.027733596 0.1713937 -0.3667821 0.17698199 0.17761333 0.047363695 -0.03669391 0.21247782 -0.17793201 0.026930448 -0.22650708 0.09089865 0.095396645 -0.13925661 -0.08562861 -0.0921327 -0.07155867 -0.019925905 0.14300479 0.024141392 -0.23370373 -0.0895519 0.014304236 -0.06275824 -0.09288639 0.33836314 0.021609802 0.046971034 -0.026545912 0.017270781 -0.19941474 -0.12384075 -0.03139014 -0.17510325 -0.12751381 0.105182454 -0.21413411 0.085480504 -0.009631194 0.18842627 0.22593705 -0.20764785 0.20852083 0.07174929 0.10309128 0.1000946 -0.12262541 0.0033859292 -0.16598827 0.19444017 -0.11297475 -0.22524887 -0.16823591 0.1460093 0.1066048 0.22194982 0.2963376 0.08488075 0.22530054 0.11603609 -0.081712484 0.099193946 0.036992624 0.26562482 -0.07769752 -0.12072455 -0.102333516 0.1954515 0.065609515 0.118079975 -0.37864757 0.0024242257 0.24977134 -0.0049760803 0.085107245 -0.10648272 0.18744272 -0.010315932 0.089518644 0.13284285 0.028301677 0.06904826 0.19182888 0.08915329 -0.17074579 -0.14073576 0.10135126 -0.100204706 0.59061533 -0.18906467 -0.010534995 -0.2291752 -0.2534761 0.0015807215 -0.027976176 -0.10971932
36 0.21183306 -0.03223031 0.028329752 0.023452228 0.036973532 0.17620696 -0.3522715 0.16199458 0.17195313 0.051635075 -0.0250471 0.20046769 -0.1808108 0.011893096 -0.22194831 0.09619613 0.102481425 -0.13234822 -0.0800749 -0.09334296 -0.061530642 -0.033338025 0.1375784 0.016512284 -0.23245852 -0.08320174 0.012135331 -0.06567432 -0.095817156 0.3265491 0.01429844 0.05083908 -0.024642518 0.021455642 -0.2082111 -0.1396364 -0.02577313 -0.17756437 -0.123369984 0.10951208 -0.21601254 0.08452302 -0.017661104 0.19463934 0.21584164 -0.19678736 0.20794202 0.0660223 0.1079024 0.090403296 -0.12705706 -0.007267894 -0.17224516 0.20579144 -0.105637185 -0.22182992 -0.17132281 0.14463355 0.10698534 0.21396384 0.29766852 0.081153855 0.23798707 0.1153638 -0.08336782 0.11000037 0.05323285 0.27334973 -0.067193255 -0.113122456 -0.11101213 0.19520617 0.07661716 0.1314102 -0.38617474 0.00725048 0.2496821 -0.014360909 0.09917422 -0.10065875 0.19222473 -0.0117661385 0.097694926 0.11622799 0.025100237 0.067385584 0.2061496 0.087204196 -0.17831656 -0.15574084 0.10210085 -0.09223765 0.58475333 -0.19802788 -0.0011437952 -0.22768536 -0.25300983 0.0053870976 -0.019507382 -0.11669264
416 0.21868259 -0.025608914 0.04083079 0.023297818 0.03240591 0.17371112 -0.3605149 0.17382517 0.17309304 0.061016977 -0.03884718 0.19372189 -0.16995308 0.01881658 -0.23414163 0.10124178 0.10370784 -0.13539474 -0.08123102 -0.11005784 -0.07974976 -0.016842322 0.1279794 0.021885585 -0.22559261 -0.080698915 0.011299528 -0.053894933 -0.10383048 0.3235231 0.011853826 0.036614813 -0.033655185 0.015307868 -0.21095568 -0.13365118 -0.028977642 -0.17383835 -0.12365567 0.10784869 -0.21595259 0.07708639 -0.0048602154 0.19816867 0.22376533 -0.19571172 0.21935849 0.064685665 0.106365666 0.0994873 -0.12433963 0.002491122 -0.17721204 0.20397793 -0.11112093 -0.2144042 -0.17397273 0.14456035 0.10793372 0.22163615 0.30556768 0.09142963 0.22219963 0.11019876 -0.06494479 0.101279065 0.034485362 0.25869128 -0.076040395 -0.11416835 -0.111908056 0.1882531 0.07681855 0.13014366 -0.3825505 0.006422169 0.2683439 -0.014978072 0.10347292 -0.11907777 0.19120058 -0.015826609 0.09055955 0.128359 0.02438168 0.06950394 0.19566509 0.089373365 -0.17106149 -0.15918913 0.08474963 -0.09408732 0.582737 -0.19875136 -0.0025327343 -0.22313862 -0.23861477 0.003592199 -0.026654031 -0.1194846
72 0.22184716 -0.028077273 0.023887405 0.021509415 0.035085298 0.16922426 -0.36226657 0.16734223 0.18883465 0.042375598 -0.028920544 0.19599651 -0.16780528 0.022453273 -0.23421301 0.095582314 0.11096117 -0.13726068 -0.09532626 -0.09885277 -0.071933016 -0.028646449 0.13954543 0.0087643135 -0.2326553 -0.09002806 0.017124318 -0.053519946 -0.083387114 0.32199508 0.026884884 0.04737305 -0.024927296 0.017314654 -0.21654885 -0.13416463 -0.03105036 -0.16479802 -0.13224857 0.09224828 -0.20543478 0.075782016 -0.002837141 0.19460799 0.22192651 -0.21099734 0.2178787 0.08505789 0.092838965 0.093019895 -0.13315263 -0.0048578894 -0.16798225 0.2066703 -0.11051291 -0.22258385 -0.18150142 0.14770845 0.101984926 0.22165728 0.29173392 0.08332193 0.23829928 0.11326875 -0.084137954 0.09811078 0.04078406 0.2589943 -0.073650554 -0.12909202 -0.110561155 0.19033583 0.0788959 0.12128116 -0.3777663 0.008258917 0.25715396 -0.016276885 0.08441625 -0.108373344 0.19690998 -0.003479632 0.098228164 0.11759666 0.020082764 0.055229917 0.18959412 0.098815046 -0.18716681 -0.1408729 0.08981128 -0.09049262 0.5924196 -0.19993211 -0.014950154 -0.21688052 -0.24035126 0.013372795 -0.019734656 -0.12010695
229 0.20456293 -0.03562553 0.021730402 0.022254204 0.02801888 0.17911254 -0.35918906 0.17663634 0.16927205 0.05489553 -0.025485827 0.19558507 -0.18535407 0.011791853 -0.23064156 0.095596075 0.1089007 -0.13716918 -0.07833772 -0.109823495 -0.08160786 -0.029798169 0.138326 0.019478159 -0.22694726 -0.098295525 0.01297737 -0.049547162 -0.09744327 0.32716984 0.026899386 0.038310755 -0.026890218 0.02316623 -0.20554516 -0.1277334 -0.015029401 -0.17228639 -0.122981444 0.09239991 -0.2164516 0.09444245 -0.018426733 0.1908531 0.21221775 -0.2002235 0.22067267 0.08186899 0.09635232 0.08816263 -0.14026256 -0.014265091 -0.16067645 0.20938317 -0.101650566 -0.20625325 -0.17361441 0.1515267 0.1048115 0.22376946 0.2960131 0.091793396 0.23473766 0.11926408 -0.08164152 0.0952346 0.05065201 0.26410955 -0.08009992 -0.12547962 -0.09695793 0.20523816 0.06768114 0.11846796 -0.3856672 0.02031984 0.26891994 -0.0035929875 0.08526575 -0.10479021 0.1901888 -0.019689469 0.08411798 0.13070981 0.03432551 0.06211601 0.18571241 0.094324395 -0.17321324 -0.15871462 0.08510844 -0.09694766 0.582126 -0.19861177 -0.006036394 -0.21849883 -0.2449143 -0.0015311859 -0.02261398 -0.11100389
